{"learner":{"attributes":{"scikit_learn":"{\"_estimator_type\": \"classifier\"}"},"feature_names":[],"feature_types":[],"gradient_booster":{"model":{"gbtree_model_param":{"num_parallel_tree":"1","num_trees":"100"},"iteration_indptr":[0,1,2,3,4,5,6,7,8,9,10,11,12,13,14,15,16,17,18,19,20,21,22,23,24,25,26,27,28,29,30,31,32,33,34,35,36,37,38,39,40,41,42,43,44,45,46,47,48,49,50,51,52,53,54,55,56,57,58,59,60,61,62,63,64,65,66,67,68,69,70,71,72,73,74,75,76,77,78,79,80,81,82,83,84,85,86,87,88,89,90,91,92,93,94,95,96,97,98,99,100],"tree_info":[0,0,0,0,0,0,0,0,0,0,0,0,0,0,0,0,0,0,0,0,0,0,0,0,0,0,0,0,0,0,0,0,0,0,0,0,0,0,0,0,0,0,0,0,0,0,0,0,0,0,0,0,0,0,0,0,0,0,0,0,0,0,0,0,0,0,0,0,0,0,0,0,0,0,0,0,0,0,0,0,0,0,0,0,0,0,0,0,0,0,0,0,0,0,0,0,0,0,0,0],"trees":[{"base_weights":[-6.7873955E-8,-6.990543E-1,8.866296E-1,-8.180815E-1,1.6795669E0,1.3263854E0,3.3131385E-1,-3.470408E-1,-1.4225366E0,1.2185982E0,1.8612813E0,8.9487594E-1,1.698451E0,1.724237E-1,1.8595511E0,-5.914804E-1,2.546027E-1,-1.651335E0,-8.881986E-1,9.21883E-2,1.4249742E0,5.6772244E-1,1.1932207E-1,1.2300192E0,3.1477982E-1,1.4436707E0,1.8471137E0,6.293687E-1,-6.1432874E-1,5.7755846E-1,4.537143E-2,4.9464233E-2,-9.076617E-1,-9.150679E-1,4.474564E-1,-1.7135653E0,-1.1319125E0,-5.4237604E-1,-1.1903231E0,-3.3396196E-1,7.4717623E-1,1.4847847E0,6.603885E-2,1.025124E0,1.5715035E0,-3.2167894E-1,5.7552445E-1,1.609755E0,1.0371292E0,5.596075E-1,-1.6435602E-1,8.025462E-1,-7.188304E-1,-1.4484642E0,1.1707177E-1,9.887945E-2,-7.999323E-2,-3.00411E-1,4.2036638E-2,-3.3244103E-1,4.1888427E-2,2.0087856E-1,-2.0616572E-1,-5.322767E-1,-4.398799E-1,1.0501829E-1,-3.6762702E-1,-1.345744E-2,-3.5217133E-1,1.4385362E-1,-3.8607746E-1,5.3826287E-2,3.3270603E-1,3.349612E-1,5.389845E-1,4.207953E-1,2.001753E-1,4.8845586E-1,3.4429852E-2,-2.598776E-1,9.3976684E-2,4.3544656E-1,5.4948646E-1,-1.0103646E-1,4.3311146E-1,1.453089E-1,3.9930168E-1,-1.1186516E-1,-5.394777E-1,-8.0737256E-4,-4.459749E-1,7.0651084E-2,-4.1917646E-1],"categories":[],"categories_nodes":[],"categories_segments":[],"categories_sizes":[],"default_left":[0,0,0,0,0,0,0,0,0,0,0,0,0,0,0,0,0,0,0,0,0,0,0,0,0,0,0,0,0,0,0,0,0,0,0,0,0,0,0,0,0,0,0,0,0,0,0,0,0,0,0,0,0,0,0,0,0,0,0,0,0,0,0,0,0,0,0,0,0,0,0,0,0,0,0,0,0,0,0,0,0,0,0,0,0,0,0,0,0,0,0,0,0],"id":0,"left_children":[1,3,5,7,9,11,13,15,17,19,21,23,25,27,29,31,33,35,37,39,41,-1,-1,43,45,47,49,51,53,-1,-1,55,57,59,61,63,65,67,69,-1,71,73,-1,75,77,79,-1,81,83,-1,-1,85,87,89,91,-1,-1,-1,-1,-1,-1,-1,-1,-1,-1,-1,-1,-1,-1,-1,-1,-1,-1,-1,-1,-1,-1,-1,-1,-1,-1,-1,-1,-1,-1,-1,-1,-1,-1,-1,-1,-1,-1],"loss_changes":[1.9753025E3,5.0589325E2,3.4266504E2,4.8289282E2,4.872772E0,1.2431055E2,1.5077469E2,1.4067117E2,8.9399414E1,6.145134E0,1.9464569E0,7.057416E1,1.3231934E1,2.0341504E2,6.2690277E0,1.377989E2,6.2837196E1,1.48446045E1,2.2862656E1,4.976724E0,1.3125648E0,0E0,0E0,1.4551636E1,1.3840404E2,9.083038E0,1.2448181E1,8.410324E1,1.2706724E2,0E0,0E0,2.0056442E1,4.4839355E1,8.198036E0,6.051215E1,4.3286133E0,8.535912E0,3.3487717E1,1.9853104E1,0E0,6.2277174E-1,4.6286774E-1,0E0,1.895848E1,6.811096E0,3.3984055E1,0E0,1.2478333E0,2.7857601E1,0E0,0E0,5.2741776E1,1.4733168E1,5.3555145E0,2.0370733E1,0E0,0E0,0E0,0E0,0E0,0E0,0E0,0E0,0E0,0E0,0E0,0E0,0E0,0E0,0E0,0E0,0E0,0E0,0E0,0E0,0E0,0E0,0E0,0E0,0E0,0E0,0E0,0E0,0E0,0E0,0E0,0E0,0E0,0E0,0E0,0E0,0E0,0E0],"parents":[2147483647,0,0,1,1,2,2,3,3,4,4,5,5,6,6,7,7,8,8,9,9,10,10,11,11,12,12,13,13,14,14,15,15,16,16,17,17,18,18,19,19,20,20,23,23,24,24,25,25,26,26,27,27,28,28,31,31,32,32,33,33,34,34,35,35,36,36,37,37,38,38,40,40,41,41,43,43,44,44,45,45,47,47,48,48,51,51,52,52,53,53,54,54],"right_children":[2,4,6,8,10,12,14,16,18,20,22,24,26,28,30,32,34,36,38,40,42,-1,-1,44,46,48,50,52,54,-1,-1,56,58,60,62,64,66,68,70,-1,72,74,-1,76,78,80,-1,82,84,-1,-1,86,88,90,92,-1,-1,-1,-1,-1,-1,-1,-1,-1,-1,-1,-1,-1,-1,-1,-1,-1,-1,-1,-1,-1,-1,-1,-1,-1,-1,-1,-1,-1,-1,-1,-1,-1,-1,-1,-1,-1,-1],"split_conditions":[2.935174E-1,2.5270567E0,9.7024256E-1,8.077366E-1,-7.514119E-1,8.65639E-1,2.5270567E0,1.7279038E0,5.106681E-1,-6.080692E-1,1.5301195E0,8.077366E-1,1.2470534E0,8.077366E-1,2.48665E0,-2.9848715E-2,3.4495533E-1,1.0281024E-1,9.1241914E-1,-1.8325053E-1,9.878191E-1,5.6772244E-1,1.1932207E-1,1.7279038E0,2.5270567E0,8.077366E-1,3.3448324E0,2.2959428E0,-5.611501E-1,5.7755846E-1,4.537143E-2,9.7024256E-1,1.4885424E0,1.4859068E0,1.0983819E0,-3.5351825E-1,-1.5574877E0,8.7070507E-1,5.3516006E-1,-3.3396196E-1,1.9816384E-1,1.099705E0,6.603885E-2,1.4006604E-1,1.2803371E0,2.009798E-1,5.7552445E-1,7.283783E-1,-7.514119E-1,5.596075E-1,-1.6435602E-1,1.7279038E0,3.1541252E0,-1.687859E0,2.7727108E0,9.887945E-2,-7.999323E-2,-3.00411E-1,4.2036638E-2,-3.3244103E-1,4.1888427E-2,2.0087856E-1,-2.0616572E-1,-5.322767E-1,-4.398799E-1,1.0501829E-1,-3.6762702E-1,-1.345744E-2,-3.5217133E-1,1.4385362E-1,-3.8607746E-1,5.3826287E-2,3.3270603E-1,3.349612E-1,5.389845E-1,4.207953E-1,2.001753E-1,4.8845586E-1,3.4429852E-2,-2.598776E-1,9.3976684E-2,4.3544656E-1,5.4948646E-1,-1.0103646E-1,4.3311146E-1,1.453089E-1,3.9930168E-1,-1.1186516E-1,-5.394777E-1,-8.0737256E-4,-4.459749E-1,7.0651084E-2,-4.1917646E-1],"split_indices":[2,5,7,5,4,2,5,9,4,8,8,5,2,5,2,4,4,2,1,2,0,0,0,9,5,5,2,2,4,0,0,7,4,8,4,4,0,4,4,0,2,8,0,4,4,4,0,8,4,0,0,9,2,8,2,0,0,0,0,0,0,0,0,0,0,0,0,0,0,0,0,0,0,0,0,0,0,0,0,0,0,0,0,0,0,0,0,0,0,0,0,0,0],"split_type":[0,0,0,0,0,0,0,0,0,0,0,0,0,0,0,0,0,0,0,0,0,0,0,0,0,0,0,0,0,0,0,0,0,0,0,0,0,0,0,0,0,0,0,0,0,0,0,0,0,0,0,0,0,0,0,0,0,0,0,0,0,0,0,0,0,0,0,0,0,0,0,0,0,0,0,0,0,0,0,0,0,0,0,0,0,0,0,0,0,0,0,0,0],"sum_hessian":[3.1849885E3,1.7809937E3,1.403995E3,1.6967439E3,8.42497E1,7.827472E2,6.212478E2,9.544966E2,7.422474E2,2.5999907E1,5.824979E1,3.639987E2,4.187485E2,5.63748E2,5.7499794E1,6.7874756E2,2.7574902E2,5.1824817E2,2.239992E2,4.2499847E0,2.1749922E1,5.6749798E1,1.4999946E0,2.2999918E2,1.3399953E2,1.5824944E2,2.6049905E2,3.5674872E2,2.0699925E2,5.52498E1,2.249992E0,2.2449919E2,4.5424838E2,3.8499863E1,2.3724915E2,4.6074835E2,5.7499794E1,1.0574962E2,1.1824958E2,1.2499955E0,2.9999893E0,2.0499928E1,1.2499955E0,1.4624948E2,8.37497E1,9.649966E1,3.7499866E1,1.102496E2,4.799983E1,2.5874908E2,1.7499938E0,3.1649887E2,4.0249855E1,9.624966E1,1.107496E2,1.1899957E2,1.05499626E2,4.169985E2,3.7249866E1,3.2499886E1,5.9999785E0,1.9874928E2,3.8499863E1,3.649987E2,9.574966E1,3.2499883E0,5.4249805E1,5.9749786E1,4.5999836E1,6.2499776E0,1.119996E2,1.7499938E0,1.2499955E0,1.1499959E1,8.999968E0,6.974975E1,7.6499725E1,8.049971E1,3.2499883E0,5.1749813E1,4.474984E1,6.8749756E1,4.149985E1,1.0999961E1,3.6999866E1,1.9874928E2,1.1774958E2,3.1499887E1,8.749969E0,2.499991E0,9.3749664E1,1.03499626E2,7.2499743E0],"tree_param":{"num_deleted":"0","num_feature":"11","num_nodes":"93","size_leaf_vector":"1"}},{"base_weights":[1.329966E-3,-6.604098E-1,5.2319527E-1,-7.386499E-1,1.2461567E0,8.2980436E-1,1.41187E-1,-4.2227277E-1,-1.1313986E0,7.9251033E-1,4.2785323E-1,3.5417303E-1,1.1670985E0,2.0867035E-2,1.4490423E0,-1.7704447E-1,-6.931526E-1,-1.3087455E0,-7.3201096E-1,-1.9129679E-1,9.6598774E-1,7.081291E-1,-1.7707652E-1,9.077614E-1,1.3715255E0,3.3293647E-1,-5.103605E-1,4.4851172E-1,3.5965055E-2,-3.357919E-1,2.2551231E-1,-9.098707E-1,-1.7431578E-1,-2.8365953E-2,-1.3169353E0,-4.1201478E-1,-1.0651729E0,2.0391211E-1,-2.9516125E-1,4.0441787E-1,4.5045653E-1,5.221093E-1,1.0409945E0,-5.7516354E-1,4.064696E-1,6.961521E-1,1.2443703E0,1.3832185E0,-1.3359006E-1,5.535548E-2,8.7964803E-1,-1.0583466E0,-6.9732172E-3,3.596393E-2,-1.6462107E-1,1.4795211E-1,-9.374159E-2,-3.0297694E-1,-5.166163E-2,1.7056608E-1,-1.6006488E-1,-2.5916025E-1,2.2185658E-1,-4.1373527E-1,-3.243413E-1,-2.1303907E-1,7.826106E-2,-3.3425784E-1,4.042981E-1,2.9506293E-1,-1.6282678E-1,1.1633256E-1,4.336808E-1,-1.8777882E-1,3.4163254E-1,-1.91049E-1,2.7584916E-1,2.664609E-1,7.908225E-2,-4.6272524E-2,3.8351235E-1,3.7514532E-1,4.381251E-1,2.014219E-1,-1.0418394E-1,-3.467592E-1,3.063621E-1,-2.1599011E-1,-3.5908118E-1,1.1966916E-1,-1.233532E-1],"categories":[],"categories_nodes":[],"categories_segments":[],"categories_sizes":[],"default_left":[0,0,0,0,0,0,0,0,0,0,0,0,0,0,0,0,0,0,0,0,0,0,0,0,0,0,0,0,0,0,0,0,0,0,0,0,0,0,0,0,0,0,0,0,0,0,0,0,0,0,0,0,0,0,0,0,0,0,0,0,0,0,0,0,0,0,0,0,0,0,0,0,0,0,0,0,0,0,0,0,0,0,0,0,0,0,0,0,0,0,0],"id":1,"left_children":[1,3,5,7,9,11,13,15,17,19,-1,21,23,25,27,29,31,33,35,37,39,41,43,45,47,49,51,-1,-1,53,55,57,59,61,63,65,67,-1,-1,-1,69,71,73,75,-1,77,79,81,-1,83,85,87,89,-1,-1,-1,-1,-1,-1,-1,-1,-1,-1,-1,-1,-1,-1,-1,-1,-1,-1,-1,-1,-1,-1,-1,-1,-1,-1,-1,-1,-1,-1,-1,-1,-1,-1,-1,-1,-1,-1],"loss_changes":[1.0626522E3,2.0330573E2,2.0138663E2,1.6153912E2,3.267784E0,1.5266241E2,1.2069906E2,4.7954285E1,4.0203857E1,3.1800756E0,0E0,7.4839935E1,2.8329102E1,1.16811134E2,3.7714996E0,2.4436592E1,3.847032E1,4.1693115E0,1.8854378E1,3.0611014E0,2.3640127E0,1.4234085E1,9.816009E1,1.6859344E1,7.201294E0,6.730492E1,7.1924385E1,0E0,0E0,2.6632938E1,1.5764925E1,1.7693619E1,2.7645432E1,2.9303632E0,4.3533325E0,1.9029259E1,1.19134445E1,0E0,0E0,0E0,4.7287035E0,1.8681309E1,1.4494217E1,1.2332222E1,0E0,1.2647301E1,4.7050323E0,1.3323364E0,0E0,7.351388E1,4.4226784E1,4.9930115E0,2.2626322E1,0E0,0E0,0E0,0E0,0E0,0E0,0E0,0E0,0E0,0E0,0E0,0E0,0E0,0E0,0E0,0E0,0E0,0E0,0E0,0E0,0E0,0E0,0E0,0E0,0E0,0E0,0E0,0E0,0E0,0E0,0E0,0E0,0E0,0E0,0E0,0E0,0E0,0E0],"parents":[2147483647,0,0,1,1,2,2,3,3,4,4,5,5,6,6,7,7,8,8,9,9,11,11,12,12,13,13,14,14,15,15,16,16,17,17,18,18,19,19,20,20,21,21,22,22,23,23,24,24,25,25,26,26,29,29,30,30,31,31,32,32,33,33,34,34,35,35,36,36,40,40,41,41,42,42,43,43,45,45,46,46,47,47,49,49,50,50,51,51,52,52],"right_children":[2,4,6,8,10,12,14,16,18,20,-1,22,24,26,28,30,32,34,36,38,40,42,44,46,48,50,52,-1,-1,54,56,58,60,62,64,66,68,-1,-1,-1,70,72,74,76,-1,78,80,82,-1,84,86,88,90,-1,-1,-1,-1,-1,-1,-1,-1,-1,-1,-1,-1,-1,-1,-1,-1,-1,-1,-1,-1,-1,-1,-1,-1,-1,-1,-1,-1,-1,-1,-1,-1,-1,-1,-1,-1,-1,-1],"split_conditions":[7.456651E-3,2.5270567E0,9.7024256E-1,8.077366E-1,-7.514119E-1,5.795782E-1,2.5270567E0,9.7024256E-1,5.106681E-1,-6.080692E-1,4.2785323E-1,8.077366E-1,1.0563462E0,8.077366E-1,2.48665E0,1.7279038E0,-2.7860412E-1,-1.8996152E0,9.7024256E-1,-1.6021638E0,-6.959818E-1,1.7279038E0,2.5270567E0,1.7279038E0,3.3448324E0,1.7279038E0,-3.5351825E-1,4.4851172E-1,3.5965055E-2,-8.762484E-2,8.278247E-1,1.3806123E0,5.9756607E-2,6.8712986E-1,-3.5351825E-1,1.0329077E0,2.1316748E0,2.0391211E-1,-2.9516125E-1,4.0441787E-1,-5.435037E-1,1.4130081E0,2.2304736E-1,1.5026345E0,4.064696E-1,8.077366E-1,7.357903E-2,1.4377605E0,-1.3359006E-1,-2.9848715E-2,2.550264E-1,6.4609164E-1,9.1241914E-1,3.596393E-2,-1.6462107E-1,1.4795211E-1,-9.374159E-2,-3.0297694E-1,-5.166163E-2,1.7056608E-1,-1.6006488E-1,-2.5916025E-1,2.2185658E-1,-4.1373527E-1,-3.243413E-1,-2.1303907E-1,7.826106E-2,-3.3425784E-1,4.042981E-1,2.9506293E-1,-1.6282678E-1,1.1633256E-1,4.336808E-1,-1.8777882E-1,3.4163254E-1,-1.91049E-1,2.7584916E-1,2.664609E-1,7.908225E-2,-4.6272524E-2,3.8351235E-1,3.7514532E-1,4.381251E-1,2.014219E-1,-1.0418394E-1,-3.467592E-1,3.063621E-1,-2.1599011E-1,-3.5908118E-1,1.1966916E-1,-1.233532E-1],"split_indices":[2,5,7,5,4,2,5,7,4,8,0,5,2,5,2,9,2,2,7,8,3,9,5,9,2,9,4,0,0,4,4,8,4,3,4,3,4,0,0,0,0,4,4,4,0,5,4,2,0,4,4,6,1,0,0,0,0,0,0,0,0,0,0,0,0,0,0,0,0,0,0,0,0,0,0,0,0,0,0,0,0,0,0,0,0,0,0,0,0,0,0],"split_type":[0,0,0,0,0,0,0,0,0,0,0,0,0,0,0,0,0,0,0,0,0,0,0,0,0,0,0,0,0,0,0,0,0,0,0,0,0,0,0,0,0,0,0,0,0,0,0,0,0,0,0,0,0,0,0,0,0,0,0,0,0,0,0,0,0,0,0,0,0,0,0,0,0,0,0,0,0,0,0,0,0,0,0,0,0,0,0,0,0,0,0],"sum_hessian":[3.0751272E3,1.3557424E3,1.7193846E3,1.3028882E3,5.285429E1,9.5317285E2,7.6621185E2,7.2275275E2,5.8013544E2,1.6550327E1,3.6303963E1,3.9633533E2,5.568375E2,7.0259094E2,6.3620937E1,3.8020535E2,3.425474E2,4.0016605E2,1.799694E2,2.4655025E0,1.4084824E1,2.3765788E2,1.5867746E2,2.4785182E2,3.089857E2,4.4282614E2,2.5976477E2,6.1372295E1,2.2486422E0,2.7279504E2,1.074103E2,2.4109032E2,1.0145707E2,2.5717206E0,3.9759433E2,9.293942E1,8.702999E1,1.2424788E0,1.2230235E0,7.162006E0,6.9228177E0,1.541055E2,8.355238E1,1.26445015E2,3.2232445E1,1.5406622E2,9.378561E1,3.0724692E2,1.7387657E0,2.944346E2,1.4839154E2,1.23844986E2,1.359198E2,8.702058E1,1.8577448E2,7.178077E1,3.5629528E1,2.1197081E2,2.9119505E1,3.2880306E1,6.857676E1,1.171776E0,1.3999445E0,3.107877E2,8.680665E1,6.4366905E1,2.8572517E1,8.582458E1,1.2054148E0,4.511238E0,2.4115796E0,1.3577515E2,1.833036E1,4.3302712E0,7.922211E1,1.2198606E2,4.458948E0,1.0596435E2,4.810187E1,2.1421323E0,9.164348E1,1.1930809E2,1.8793883E2,1.16111305E2,1.7832329E2,9.182905E0,1.3920863E2,3.7784973E1,8.606001E1,6.782665E1,6.809314E1],"tree_param":{"num_deleted":"0","num_feature":"11","num_nodes":"91","size_leaf_vector":"1"}},{"base_weights":[2.9433512E-3,-3.9277565E-1,5.182631E-1,-4.5772415E-1,1.0671141E0,7.9021615E-1,2.0049283E-1,-1.9054164E-1,-8.396628E-1,7.236685E-1,1.2183813E0,5.572397E-1,1.1418803E0,3.530328E-1,-5.8088887E-1,-5.1216924E-1,-1.3949312E-2,-1.0163094E0,-4.71901E-1,4.3855882E-1,3.746725E-1,3.7535587E-1,2.4928642E-2,7.478906E-1,2.056057E-1,1.1529226E0,-1.0936083E-1,2.6427406E-1,1.2776972E0,-8.2990134E-1,5.577592E-2,-1.6959085E-1,-8.089983E-1,-2.0000175E-1,4.1954738E-1,-1.1492711E0,-8.06714E-1,-7.164087E-1,-1.3045906E-1,-5.47212E-1,7.2783315E-1,5.9365124E-1,1.018346E0,-1.9087388E-1,4.1246128E-1,1.2276231E0,9.802873E-1,5.002312E-1,-1.6598898E-1,6.093795E-1,3.9662877E-1,-1.0058935E0,1.562749E-1,1.0159062E0,-3.5236037E-1,-7.9521574E-2,3.309184E-1,-1.8481697E-1,-3.28356E-1,4.037478E-2,-1.20153256E-1,-2.751492E-1,1.5901312E-1,-5.6837674E-2,-3.5692993E-1,-1.3616185E-1,-3.3395225E-1,-2.6637614E-1,-3.8832784E-2,7.461675E-2,-1.6686541E-1,-3.4243295E-1,3.108102E-2,3.65339E-1,1.07786484E-1,3.037436E-1,9.793761E-2,3.1620446E-1,-2.1686189E-1,-1.8346792E-1,7.3993795E-2,9.775547E-2,3.7105215E-1,2.0074283E-1,4.1452506E-1,2.3073822E-1,6.678992E-2,-1.9605087E-1,8.150663E-2,-2.0132951E-2,2.7716327E-1,-1.9086976E-1,-3.737944E-1,3.989357E-1,-1.789195E-1,-4.3204173E-2,3.6768016E-1,-2.9691583E-2,-4.3780568E-1],"categories":[],"categories_nodes":[],"categories_segments":[],"categories_sizes":[],"default_left":[0,0,0,0,0,0,0,0,0,0,0,0,0,0,0,0,0,0,0,0,0,0,0,0,0,0,0,0,0,0,0,0,0,0,0,0,0,0,0,0,0,0,0,0,0,0,0,0,0,0,0,0,0,0,0,0,0,0,0,0,0,0,0,0,0,0,0,0,0,0,0,0,0,0,0,0,0,0,0,0,0,0,0,0,0,0,0,0,0,0,0,0,0,0,0,0,0,0,0],"id":2,"left_children":[1,3,5,7,9,11,13,15,17,19,21,23,25,27,29,31,33,35,37,39,-1,-1,-1,41,43,45,-1,47,49,51,53,55,57,59,61,63,65,67,69,71,73,75,77,79,-1,81,83,85,87,89,-1,91,93,95,97,-1,-1,-1,-1,-1,-1,-1,-1,-1,-1,-1,-1,-1,-1,-1,-1,-1,-1,-1,-1,-1,-1,-1,-1,-1,-1,-1,-1,-1,-1,-1,-1,-1,-1,-1,-1,-1,-1,-1,-1,-1,-1,-1,-1],"loss_changes":[5.89143E2,1.5543692E2,1.08287506E2,1.5957135E2,2.7500305E0,5.4736023E1,6.9340904E1,5.2375935E1,4.1355927E1,3.0219975E0,1.6489868E0,2.7230629E1,4.8844604E0,3.954284E1,1.5125916E1,3.3101646E1,4.8186512E1,1.1172028E1,1.7507069E1,5.2436705E0,0E0,0E0,0E0,1.0428757E1,6.747792E1,2.235382E0,0E0,4.5222775E1,4.4942474E-1,1.2035164E1,1.1204635E1,1.8885042E1,8.95887E0,2.8095404E1,2.6987879E1,1.0008057E1,1.8079498E1,1.2230091E1,1.45380535E1,1.8298897E0,2.012137E0,1.8786999E1,6.6410065E0,2.024136E1,0E0,1.111084E0,9.755447E0,2.1281662E1,3.3938488E1,1.0172572E0,0E0,4.3733063E0,1.0711601E1,2.2473555E0,5.5120115E0,0E0,0E0,0E0,0E0,0E0,0E0,0E0,0E0,0E0,0E0,0E0,0E0,0E0,0E0,0E0,0E0,0E0,0E0,0E0,0E0,0E0,0E0,0E0,0E0,0E0,0E0,0E0,0E0,0E0,0E0,0E0,0E0,0E0,0E0,0E0,0E0,0E0,0E0,0E0,0E0,0E0,0E0,0E0,0E0],"parents":[2147483647,0,0,1,1,2,2,3,3,4,4,5,5,6,6,7,7,8,8,9,9,10,10,11,11,12,12,13,13,14,14,15,15,16,16,17,17,18,18,19,19,23,23,24,24,25,25,27,27,28,28,29,29,30,30,31,31,32,32,33,33,34,34,35,35,36,36,37,37,38,38,39,39,40,40,41,41,42,42,43,43,45,45,46,46,47,47,48,48,49,49,51,51,52,52,53,53,54,54],"right_children":[2,4,6,8,10,12,14,16,18,20,22,24,26,28,30,32,34,36,38,40,-1,-1,-1,42,44,46,-1,48,50,52,54,56,58,60,62,64,66,68,70,72,74,76,78,80,-1,82,84,86,88,90,-1,92,94,96,98,-1,-1,-1,-1,-1,-1,-1,-1,-1,-1,-1,-1,-1,-1,-1,-1,-1,-1,-1,-1,-1,-1,-1,-1,-1,-1,-1,-1,-1,-1,-1,-1,-1,-1,-1,-1,-1,-1,-1,-1,-1,-1,-1,-1],"split_conditions":[2.935174E-1,2.5270567E0,9.7024256E-1,8.077366E-1,-7.514119E-1,1.0563462E0,2.1052356E0,-5.646649E-1,5.106681E-1,1.1661954E0,1.5301195E0,8.077366E-1,3.3448324E0,2.5270567E0,1.7279038E0,9.1241914E-1,1.7279038E0,-2.7860412E-1,-2.7860412E-1,-5.646649E-1,3.746725E-1,3.7535587E-1,2.4928642E-2,1.7279038E0,2.5270567E0,8.077366E-1,-1.0936083E-1,8.077366E-1,3.88871E-1,1.3095326E0,-1.0417597E0,1.5200125E0,3.905107E-1,7.357903E-2,1.5334146E-1,-1.77477E0,9.1241914E-1,1.0171684E0,8.7070507E-1,-2.341895E-1,-6.959818E-1,-4.9705848E-1,1.672883E0,2.009798E-1,4.1246128E-1,-1.7181103E0,2.5270567E0,9.1241914E-1,7.357903E-2,3.4135196E-1,3.9662877E-1,2.48665E0,1.3510287E0,2.989785E-1,1.0694301E0,-7.9521574E-2,3.309184E-1,-1.8481697E-1,-3.28356E-1,4.037478E-2,-1.20153256E-1,-2.751492E-1,1.5901312E-1,-5.6837674E-2,-3.5692993E-1,-1.3616185E-1,-3.3395225E-1,-2.6637614E-1,-3.8832784E-2,7.461675E-2,-1.6686541E-1,-3.4243295E-1,3.108102E-2,3.65339E-1,1.07786484E-1,3.037436E-1,9.793761E-2,3.1620446E-1,-2.1686189E-1,-1.8346792E-1,7.3993795E-2,9.775547E-2,3.7105215E-1,2.0074283E-1,4.1452506E-1,2.3073822E-1,6.678992E-2,-1.9605087E-1,8.150663E-2,-2.0132951E-2,2.7716327E-1,-1.9086976E-1,-3.737944E-1,3.989357E-1,-1.789195E-1,-4.3204173E-2,3.6768016E-1,-2.9691583E-2,-4.3780568E-1],"split_indices":[2,5,7,5,4,2,2,2,4,8,8,5,2,5,9,1,9,2,2,2,0,0,0,9,5,5,0,5,2,8,3,4,8,4,4,0,1,8,4,8,3,4,8,4,0,8,5,1,4,3,0,2,8,4,4,0,0,0,0,0,0,0,0,0,0,0,0,0,0,0,0,0,0,0,0,0,0,0,0,0,0,0,0,0,0,0,0,0,0,0,0,0,0,0,0,0,0,0,0],"split_type":[0,0,0,0,0,0,0,0,0,0,0,0,0,0,0,0,0,0,0,0,0,0,0,0,0,0,0,0,0,0,0,0,0,0,0,0,0,0,0,0,0,0,0,0,0,0,0,0,0,0,0,0,0,0,0,0,0,0,0,0,0,0,0,0,0,0,0,0,0,0,0,0,0,0,0,0,0,0,0,0,0,0,0,0,0,0,0,0,0,0,0,0,0,0,0,0,0,0,0],"sum_hessian":[2.887065E3,1.6331732E3,1.2538916E3,1.5642676E3,6.8905655E1,6.748539E2,5.790377E2,9.2128674E2,6.4298083E2,2.2837688E1,4.606797E1,4.074825E2,2.6737137E2,4.8492056E2,9.411716E1,3.2587335E2,5.954134E2,4.3315866E2,2.0982216E2,1.5991942E1,6.845746E0,4.4674965E1,1.3930053E0,2.6349335E2,1.4398917E2,2.656587E2,1.7126778E0,4.4362292E2,4.1297665E1,6.7437485E1,2.6679676E1,1.5200807E2,1.7386526E2,4.1698587E2,1.7842752E2,2.6228735E2,1.7087134E2,1.2162669E2,8.8195465E1,3.4258556E0,1.2566087E1,1.6983324E2,9.36601E1,1.0815295E2,3.583622E1,1.811589E2,8.449978E1,2.8639865E2,1.5722426E2,3.4899435E0,3.780772E1,5.7208168E1,1.0229317E1,7.514014E0,1.916566E1,1.42136E2,9.872072E0,1.0563793E2,6.8227325E1,1.5637527E2,2.606106E2,1.3065794E1,1.6536174E2,1.0848004E1,2.5143933E2,8.0578606E1,9.029273E1,9.372692E1,2.7899775E1,4.6869358E1,4.1326103E1,1.3967123E0,2.0291433E0,4.4052157E0,8.1608715E0,6.506064E1,1.04772606E2,9.216673E1,1.4933674E0,5.4934402E1,5.3218544E1,2.200786E0,1.7895811E2,4.910716E1,3.5392616E1,1.4458011E2,1.4181854E2,7.414435E1,8.307991E1,1.3572001E0,2.1327431E0,2.3962826E1,3.3245342E1,3.6975803E0,6.531736E0,1.1983855E0,6.315628E0,1.64823E1,2.6833622E0],"tree_param":{"num_deleted":"0","num_feature":"11","num_nodes":"99","size_leaf_vector":"1"}},{"base_weights":[3.8897193E-3,-2.82203E-1,4.4723988E-1,-3.332938E-1,9.148333E-1,6.9580686E-1,1.802501E-1,-1.1421039E-1,-6.7398095E-1,5.51735E-1,1.0987872E0,5.2657926E-1,1.0566449E0,3.1271017E-1,-4.386533E-1,9.845734E-2,-3.6943957E-1,-8.6305785E-1,-3.2450807E-1,3.034024E-1,3.3587417E-1,3.1265998E-1,3.4702152E-1,4.5084766E-1,3.844021E-1,1.0887837E0,3.0561367E-1,2.404239E-1,3.6021668E-1,-2.5119692E-1,-1.235351E0,-1.0927779E-1,4.516148E-1,-5.8527046E-1,-1.3626245E-1,-7.1272635E-1,-9.96834E-1,-7.288275E-2,-5.549501E-1,8.5233235E-1,-2.6099086E-2,-2.0904048E-1,2.607293E-1,6.468481E-1,-1.2151869E-2,3.7440404E-1,1.0972323E0,8.721545E-1,-4.2686716E-1,3.9873293E-1,-6.198597E-2,-4.7901234E-1,3.2314605E-1,-3.4538278E-1,-4.1262618E-1,4.177919E-2,-9.658293E-2,1.4393465E-1,-1.8214375E-1,-2.2132395E-1,-6.6748455E-2,1.607447E-1,-9.346781E-2,-2.837565E-1,-1.3104275E-1,-3.3345053E-1,-1.7859027E-1,-3.4954774E-1,2.8664837E-2,2.6423922E-1,-1.9183208E-1,-4.4266447E-2,3.2800198E-1,1.415649E-1,-1.9412027E-1,1.3988143E-1,2.8421345E-1,-1.3340604E-1,1.0557965E-1,2.1824835E-1,-3.6084976E-2,2.7614912E-1,3.4215432E-1,3.1565005E-1,-3.151585E-4,1.6509485E-1,-7.589069E-2,4.2300902E-2,-1.9100593E-1,-1.9149745E-1,9.14838E-2,1.6975856E-1,-3.538975E-1,-2.9407847E-1,1.7295463E-1],"categories":[],"categories_nodes":[],"categories_segments":[],"categories_sizes":[],"default_left":[0,0,0,0,0,0,0,0,0,0,0,0,0,0,0,0,0,0,0,0,0,0,0,0,0,0,0,0,0,0,0,0,0,0,0,0,0,0,0,0,0,0,0,0,0,0,0,0,0,0,0,0,0,0,0,0,0,0,0,0,0,0,0,0,0,0,0,0,0,0,0,0,0,0,0,0,0,0,0,0,0,0,0,0,0,0,0,0,0,0,0,0,0,0,0],"id":3,"left_children":[1,3,5,7,9,11,13,15,17,19,21,23,25,27,29,31,33,35,37,39,-1,41,-1,43,-1,45,47,49,-1,51,53,55,57,59,61,63,65,67,69,71,73,-1,-1,75,77,79,81,83,-1,85,87,89,91,93,-1,-1,-1,-1,-1,-1,-1,-1,-1,-1,-1,-1,-1,-1,-1,-1,-1,-1,-1,-1,-1,-1,-1,-1,-1,-1,-1,-1,-1,-1,-1,-1,-1,-1,-1,-1,-1,-1,-1,-1,-1],"loss_changes":[3.4154724E2,1.0039824E2,6.996355E1,1.1713484E2,3.886383E0,3.281964E1,4.1991047E1,5.19798E1,4.0318756E1,3.1329656E0,1.6262245E0,2.0803963E1,3.855194E0,2.6743294E1,1.3193613E1,3.8403606E1,2.182103E1,7.295624E0,1.2560545E1,3.3693192E0,0E0,3.0581214E0,0E0,3.0998657E1,0E0,5.9106445E-1,9.574873E0,1.8727648E1,0E0,9.896513E0,1.6400852E0,1.7486216E1,6.0715446E0,1.23196945E1,2.4964642E1,1.1870171E1,8.921707E0,1.9434862E1,1.4304901E1,1.8412023E0,4.1812673E0,0E0,0E0,1.2580124E1,1.630627E1,6.915425E-1,2.0111084E-1,1.1060553E0,0E0,2.5484425E1,1.5850734E1,6.902837E0,8.598008E0,2.6971507E0,0E0,0E0,0E0,0E0,0E0,0E0,0E0,0E0,0E0,0E0,0E0,0E0,0E0,0E0,0E0,0E0,0E0,0E0,0E0,0E0,0E0,0E0,0E0,0E0,0E0,0E0,0E0,0E0,0E0,0E0,0E0,0E0,0E0,0E0,0E0,0E0,0E0,0E0,0E0,0E0,0E0],"parents":[2147483647,0,0,1,1,2,2,3,3,4,4,5,5,6,6,7,7,8,8,9,9,10,10,11,11,12,12,13,13,14,14,15,15,16,16,17,17,18,18,19,19,21,21,23,23,25,25,26,26,27,27,29,29,30,30,31,31,32,32,33,33,34,34,35,35,36,36,37,37,38,38,39,39,40,40,43,43,44,44,45,45,46,46,47,47,49,49,50,50,51,51,52,52,53,53],"right_children":[2,4,6,8,10,12,14,16,18,20,22,24,26,28,30,32,34,36,38,40,-1,42,-1,44,-1,46,48,50,-1,52,54,56,58,60,62,64,66,68,70,72,74,-1,-1,76,78,80,82,84,-1,86,88,90,92,94,-1,-1,-1,-1,-1,-1,-1,-1,-1,-1,-1,-1,-1,-1,-1,-1,-1,-1,-1,-1,-1,-1,-1,-1,-1,-1,-1,-1,-1,-1,-1,-1,-1,-1,-1,-1,-1,-1,-1,-1,-1],"split_conditions":[3.88871E-1,2.5270567E0,9.7024256E-1,8.077366E-1,-4.0988818E-1,1.2470534E0,2.1052356E0,9.7024256E-1,5.106681E-1,1.1661954E0,-1.0417597E0,2.5270567E0,2.8680644E0,2.5270567E0,3.1541252E0,-8.789694E-2,-2.7860412E-1,9.1241914E-1,9.1241914E-1,-6.959818E-1,3.3587417E-1,1.0424511E0,3.4702152E-1,8.077366E-1,3.844021E-1,-1.7181103E0,9.1241914E-1,8.077366E-1,3.6021668E-1,1.7279038E0,-1.0608425E0,9.1241914E-1,1.8052144E0,1.7279038E0,-1.1022296E0,-2.7860412E-1,-3.5351825E-1,-1.0417597E0,-1.3875376E0,-5.646649E-1,-3.9864886E-1,-2.0904048E-1,2.607293E-1,1.7279038E0,2.2304736E-1,1.3424069E0,1.4377605E0,3.3448324E0,-4.2686716E-1,9.5905566E-1,6.727241E-1,1.3095326E0,1.0694301E0,-1.2470845E0,-4.1262618E-1,4.177919E-2,-9.658293E-2,1.4393465E-1,-1.8214375E-1,-2.2132395E-1,-6.6748455E-2,1.607447E-1,-9.346781E-2,-2.837565E-1,-1.3104275E-1,-3.3345053E-1,-1.7859027E-1,-3.4954774E-1,2.8664837E-2,2.6423922E-1,-1.9183208E-1,-4.4266447E-2,3.2800198E-1,1.415649E-1,-1.9412027E-1,1.3988143E-1,2.8421345E-1,-1.3340604E-1,1.0557965E-1,2.1824835E-1,-3.6084976E-2,2.7614912E-1,3.4215432E-1,3.1565005E-1,-3.151585E-4,1.6509485E-1,-7.589069E-2,4.2300902E-2,-1.9100593E-1,-1.9149745E-1,9.14838E-2,1.6975856E-1,-3.538975E-1,-2.9407847E-1,1.7295463E-1],"split_indices":[2,5,7,5,4,2,2,7,4,8,3,5,2,5,2,2,2,1,1,3,0,4,0,5,0,8,1,5,0,9,0,1,0,9,0,2,4,3,3,2,0,0,0,9,4,2,2,2,0,4,8,8,4,0,0,0,0,0,0,0,0,0,0,0,0,0,0,0,0,0,0,0,0,0,0,0,0,0,0,0,0,0,0,0,0,0,0,0,0,0,0,0,0,0,0],"split_type":[0,0,0,0,0,0,0,0,0,0,0,0,0,0,0,0,0,0,0,0,0,0,0,0,0,0,0,0,0,0,0,0,0,0,0,0,0,0,0,0,0,0,0,0,0,0,0,0,0,0,0,0,0,0,0,0,0,0,0,0,0,0,0,0,0,0,0,0,0,0,0,0,0,0,0,0,0,0,0,0,0,0,0,0,0,0,0,0,0,0,0,0,0,0,0],"sum_hessian":[2.690762E3,1.6356469E3,1.0551152E3,1.5693854E3,6.6261505E1,5.4557745E2,5.0953772E2,9.559708E2,6.1341455E2,2.3626175E1,4.2635326E1,3.730718E2,1.7250569E2,4.2011734E2,8.942039E1,5.217996E2,4.341712E2,3.9710007E2,2.1631445E2,1.7505081E1,6.121093E0,3.366249E0,3.9269077E1,3.4050354E2,3.2568268E1,1.6499536E2,7.5103273E0,3.8966818E2,3.044916E1,7.345284E1,1.5967548E1,3.2897797E2,1.9282164E2,2.2468799E2,2.0948323E2,1.8995975E2,2.0714032E2,1.04033745E2,1.1228071E2,5.971006E0,1.1534076E1,1.1065488E0,2.2597003E0,2.3895164E2,1.0155188E2,2.458175E0,1.6253719E2,6.0295033E0,1.480824E0,2.5556404E2,1.3410414E2,5.2710854E1,2.074199E1,2.642641E0,1.3324907E1,1.5185283E2,1.7712514E2,1.883574E2,4.464235E0,1.5746936E2,6.721862E1,4.291045E1,1.6657278E2,1.016475E2,8.831225E1,1.5975127E2,4.7389057E1,1.3108425E1,9.0925316E1,5.716411E0,1.0656429E2,1.2350042E0,4.736002E0,6.534143E0,4.999933E0,1.5085832E2,8.809334E1,4.631175E1,5.5240128E1,1.1597624E0,1.2984126E0,3.6354942E1,1.2618224E2,4.8290424E0,1.2004613E0,2.0746426E2,4.809978E1,9.965856E1,3.444558E1,4.3962715E1,8.7481365E0,1.8394571E1,2.3474178E0,1.5274397E0,1.1152015E0],"tree_param":{"num_deleted":"0","num_feature":"11","num_nodes":"95","size_leaf_vector":"1"}},{"base_weights":[3.932469E-3,-2.0155753E-1,3.8369206E-1,-2.4239354E-1,8.305182E-1,3.2027107E-1,1.1535461E0,-7.850643E-2,-5.185339E-1,5.034102E-1,1.0106244E0,4.895895E-1,-4.9496178E-2,3.5454297E-1,4.0987295E-1,8.912858E-2,-2.8689924E-1,-7.5414586E-1,-3.0947304E-1,-1.6396837E-1,6.4925015E-1,3.327791E-1,3.2024986E-1,6.9520855E-1,2.7666312E-1,-5.04529E-1,2.4733593E-1,2.2454567E-1,-2.9622888E-2,-7.7640325E-2,3.3468866E-1,-8.959352E-2,-4.5257106E-1,1.7224249E-1,-7.970782E-1,-1.0245919E-1,-5.2826655E-1,3.7837806E-1,-2.6898274E-1,2.9121307E-1,3.993417E-1,-9.2331484E-2,2.3560159E-1,1.9049416E-1,8.200642E-1,4.3896562E-1,-1.8277273E-1,5.8014635E-2,-8.648994E-1,4.3768817E-1,-1.7330801E-1,-7.187149E-2,3.586262E-2,5.0764274E-2,1.5818357E-1,-9.951323E-2,4.684149E-2,-6.138263E-2,-2.1884237E-1,-1.7310275E-1,4.456735E-1,-2.934658E-1,-1.7810085E-1,-2.3105024E-1,-1.9455041E-3,-2.2112888E-1,-5.0431684E-2,2.455956E-1,-4.9332872E-2,1.9901754E-1,-1.6174048E-1,1.3120994E-1,-6.852685E-2,1.8871713E-1,2.9034504E-1,1.6978014E-1,4.0689306E-3,-3.745052E-1,-1.8108016E-2,2.3702845E-1,-1.3681895E-1,6.8268046E-2,-3.1997514E-1,1.6664201E-1,-1.8029706E-1,-2.7841732E-1,8.263723E-3],"categories":[],"categories_nodes":[],"categories_segments":[],"categories_sizes":[],"default_left":[0,0,0,0,0,0,0,0,0,0,0,0,0,0,0,0,0,0,0,0,0,0,0,0,0,0,0,0,0,0,0,0,0,0,0,0,0,0,0,0,0,0,0,0,0,0,0,0,0,0,0,0,0,0,0,0,0,0,0,0,0,0,0,0,0,0,0,0,0,0,0,0,0,0,0,0,0,0,0,0,0,0,0,0,0,0,0],"id":4,"left_children":[1,3,5,7,9,11,13,15,17,19,21,23,25,-1,27,29,31,33,35,37,39,41,-1,43,45,47,49,-1,-1,51,53,55,57,59,61,63,65,67,-1,-1,69,-1,-1,71,73,75,77,79,81,83,85,-1,-1,-1,-1,-1,-1,-1,-1,-1,-1,-1,-1,-1,-1,-1,-1,-1,-1,-1,-1,-1,-1,-1,-1,-1,-1,-1,-1,-1,-1,-1,-1,-1,-1,-1,-1],"loss_changes":[1.966047E2,6.910146E1,4.2820587E1,7.116278E1,3.1703148E0,5.1278503E1,9.226761E-1,3.4559204E1,2.8622192E1,2.4586506E0,1.1591301E0,2.4396149E1,3.4976864E1,0E0,7.5970316E-1,2.2492455E1,1.43726845E1,1.1063492E1,1.4081549E1,2.378599E0,1.2218533E0,1.5443681E0,0E0,1.780655E1,2.0777664E1,2.0768354E1,1.2633634E1,0E0,0E0,1.0486731E1,6.9880505E0,1.2099692E1,1.629066E1,1.3639627E1,9.099808E0,1.0351004E1,1.1269886E1,1.0075206E0,0E0,0E0,3.5718653E0,0E0,0E0,6.0809608E0,5.8318634E0,1.1086636E1,9.468133E0,1.5731349E1,1.398177E1,1.3578079E1,7.5411625E0,0E0,0E0,0E0,0E0,0E0,0E0,0E0,0E0,0E0,0E0,0E0,0E0,0E0,0E0,0E0,0E0,0E0,0E0,0E0,0E0,0E0,0E0,0E0,0E0,0E0,0E0,0E0,0E0,0E0,0E0,0E0,0E0,0E0,0E0,0E0,0E0],"parents":[2147483647,0,0,1,1,2,2,3,3,4,4,5,5,6,6,7,7,8,8,9,9,10,10,11,11,12,12,14,14,15,15,16,16,17,17,18,18,19,19,20,20,21,21,23,23,24,24,25,25,26,26,29,29,30,30,31,31,32,32,33,33,34,34,35,35,36,36,37,37,40,40,43,43,44,44,45,45,46,46,47,47,48,48,49,49,50,50],"right_children":[2,4,6,8,10,12,14,16,18,20,22,24,26,-1,28,30,32,34,36,38,40,42,-1,44,46,48,50,-1,-1,52,54,56,58,60,62,64,66,68,-1,-1,70,-1,-1,72,74,76,78,80,82,84,86,-1,-1,-1,-1,-1,-1,-1,-1,-1,-1,-1,-1,-1,-1,-1,-1,-1,-1,-1,-1,-1,-1,-1,-1,-1,-1,-1,-1,-1,-1,-1,-1,-1,-1,-1,-1],"split_conditions":[4.8422462E-1,2.5270567E0,2.5270567E0,8.077366E-1,-4.0988818E-1,8.077366E-1,2.5820036E0,9.7024256E-1,-7.514119E-1,-6.080692E-1,-1.0417597E0,9.7024256E-1,-7.514119E-1,3.5454297E-1,-4.685848E-2,-8.789694E-2,9.1241914E-1,-1.3875376E0,9.7024256E-1,-3.9864886E-1,-6.959818E-1,1.0424511E0,3.2024986E-1,6.7493176E-1,1.8191749E0,-3.9864886E-1,6.8712986E-1,2.2454567E-1,-2.9622888E-2,1.9111736E-1,6.847255E-1,1.4759314E-1,-5.471375E-3,8.119239E-1,-2.7860412E-1,-1.145218E0,-8.789694E-2,-4.4259573E-3,-2.6898274E-1,2.9121307E-1,1.08343154E-1,-9.2331484E-2,2.3560159E-1,6.9783777E-1,1.0563462E0,1.7427397E0,-1.2470845E0,6.4609164E-1,5.795782E-1,9.774723E-1,7.7028537E-1,-7.187149E-2,3.586262E-2,5.0764274E-2,1.5818357E-1,-9.951323E-2,4.684149E-2,-6.138263E-2,-2.1884237E-1,-1.7310275E-1,4.456735E-1,-2.934658E-1,-1.7810085E-1,-2.3105024E-1,-1.9455041E-3,-2.2112888E-1,-5.0431684E-2,2.455956E-1,-4.9332872E-2,1.9901754E-1,-1.6174048E-1,1.3120994E-1,-6.852685E-2,1.8871713E-1,2.9034504E-1,1.6978014E-1,4.0689306E-3,-3.745052E-1,-1.8108016E-2,2.3702845E-1,-1.3681895E-1,6.8268046E-2,-3.1997514E-1,1.6664201E-1,-1.8029706E-1,-2.7841732E-1,8.263723E-3],"split_indices":[2,5,5,5,4,5,2,7,4,8,3,7,4,0,0,2,1,3,7,0,3,4,0,2,2,0,3,0,0,0,4,8,0,0,2,8,2,3,0,0,0,0,0,4,2,10,0,6,2,0,2,0,0,0,0,0,0,0,0,0,0,0,0,0,0,0,0,0,0,0,0,0,0,0,0,0,0,0,0,0,0,0,0,0,0,0,0],"split_type":[0,0,0,0,0,0,0,0,0,0,0,0,0,0,0,0,0,0,0,0,0,0,0,0,0,0,0,0,0,0,0,0,0,0,0,0,0,0,0,0,0,0,0,0,0,0,0,0,0,0,0,0,0,0,0,0,0,0,0,0,0,0,0,0,0,0,0,0,0,0,0,0,0,0,0,0,0,0,0,0,0,0,0,0,0,0,0],"sum_hessian":[2.5173933E3,1.6338029E3,8.835905E2,1.5723549E3,6.1448006E1,8.1764825E2,6.5942276E1,9.8754126E2,5.848136E2,2.3167107E1,3.82809E1,5.6061536E2,2.5703287E2,6.296027E1,2.982002E0,5.476078E2,4.399335E2,2.7372156E2,3.1109204E2,4.13242E0,1.9034687E1,3.493689E0,3.4787212E1,2.8404926E2,2.765661E2,1.01198906E2,1.5583397E2,1.5070597E0,1.4749424E0,3.2653183E2,2.2107597E2,2.0149965E2,2.3843385E2,1.1990029E1,2.6173154E2,1.6060355E2,1.5048848E2,2.6524518E0,1.4799683E0,7.063965E0,1.1970722E1,1.5788802E0,1.9148089E0,5.683324E1,2.2721603E2,2.0440248E2,7.216364E1,3.9842762E1,6.1356144E1,1.0725692E2,4.8577045E1,1.7917427E2,1.4735756E2,1.19919235E2,1.0115673E2,1.0132007E2,1.0017959E2,1.2670796E2,1.1172588E2,7.9915457E0,3.9984837E0,1.3642877E2,1.2530276E2,1.9300695E1,1.4130286E2,9.459406E1,5.5894413E1,1.183991E0,1.4684608E0,9.570954E0,2.3997684E0,3.5731968E1,2.1101274E1,1.0139505E2,1.2582098E2,1.5716403E2,4.7238445E1,6.4881043E0,6.567554E1,1.6214848E1,2.3627914E1,9.541985E0,5.181416E1,9.6750694E1,1.0506228E1,9.44919E0,3.9127857E1],"tree_param":{"num_deleted":"0","num_feature":"11","num_nodes":"87","size_leaf_vector":"1"}},{"base_weights":[3.7231338E-3,-1.3983321E-1,3.253907E-1,-1.7099251E-1,7.5147694E-1,5.577579E-1,1.2576923E-1,-4.956247E-2,-3.8775596E-1,4.584481E-1,9.350515E-1,3.9087364E-1,8.596604E-1,2.066599E-1,-5.1974046E-1,-1.5554866E-1,2.0324443E-1,-5.9726846E-1,-2.0877251E-1,6.374643E-1,2.6586605E-2,2.877608E-1,2.9875356E-1,3.3004472E-1,3.2899016E-1,8.998986E-1,1.0871954E-1,4.29192E-1,-1.879199E-2,-1.0984509E0,-2.6729238E-1,1.1828747E-1,-3.249882E-1,2.6719025E-1,-1.4199127E0,-8.317685E-1,-4.0406457E-1,-2.7832204E-2,-4.2438686E-1,1.2440108E-1,7.377481E-1,-5.8079106E-1,6.655253E-1,-7.313143E-2,2.1426322E-1,4.840995E-1,-3.3231948E-2,6.54548E-1,9.674856E-1,6.4697737E-1,-3.5165548E-1,-3.5156548E-2,5.303089E-1,8.698078E-2,-6.5931743E-1,-5.010878E-1,-3.7162024E-1,3.6279672E-1,-3.9015117E-1,4.974966E-2,-1.6620915E-1,-1.21074654E-1,1.8513808E-1,-1.9245605E-1,1.1425355E-1,-1.4053652E-1,-5.166366E-1,2.5364113E-1,-2.5826618E-1,-2.6067877E-1,-5.4465752E-2,2.5909157E-2,-2.6042363E-1,-3.2968976E-2,-2.1689707E-1,-1.4937931E-1,2.042845E-1,-3.98312E-3,2.5113568E-1,6.831228E-2,-3.299698E-1,2.748672E-1,-7.6502184E-3,9.674602E-2,2.5314203E-1,-1.7286488E-1,1.3456914E-1,2.4823998E-1,4.396782E-3,2.931257E-1,2.738191E-2,2.7186158E-1,-4.7854226E-2,3.7033573E-1,-6.1534736E-2,1.9431542E-1,2.5304545E-2,-6.082126E-2,1.2049427E-1,-4.0016958E-1,2.5003282E-2,-2.5895557E-1,4.1579235E-2,-3.154026E-2,-3.5805935E-1],"categories":[],"categories_nodes":[],"categories_segments":[],"categories_sizes":[],"default_left":[0,0,0,0,0,0,0,0,0,0,0,0,0,0,0,0,0,0,0,0,0,0,0,0,0,0,0,0,0,0,0,0,0,0,0,0,0,0,0,0,0,0,0,0,0,0,0,0,0,0,0,0,0,0,0,0,0,0,0,0,0,0,0,0,0,0,0,0,0,0,0,0,0,0,0,0,0,0,0,0,0,0,0,0,0,0,0,0,0,0,0,0,0,0,0,0,0,0,0,0,0,0,0,0,0],"id":5,"left_children":[1,3,5,7,9,11,13,15,17,19,21,23,25,27,29,31,33,35,37,39,41,43,-1,45,-1,47,49,51,53,55,57,59,61,63,65,67,69,71,73,75,77,79,81,-1,-1,83,85,87,89,91,-1,93,95,97,99,101,-1,-1,103,-1,-1,-1,-1,-1,-1,-1,-1,-1,-1,-1,-1,-1,-1,-1,-1,-1,-1,-1,-1,-1,-1,-1,-1,-1,-1,-1,-1,-1,-1,-1,-1,-1,-1,-1,-1,-1,-1,-1,-1,-1,-1,-1,-1,-1,-1],"loss_changes":[1.0989596E2,4.582875E1,3.399359E1,4.1851803E1,2.5712242E0,1.6746605E1,2.080078E1,2.7381058E1,2.1288124E1,1.7953682E0,1.0248394E0,9.0909195E0,3.5241394E0,1.7712612E1,6.1953735E0,3.3435066E1,3.1720335E1,1.1558456E1,1.2062158E1,7.5867033E-1,3.4574556E0,1.141454E0,0E0,1.1441109E1,0E0,1.2510757E0,5.7457085E0,8.359295E0,1.1998489E1,4.8284817E-1,6.3219776E0,8.909889E0,3.319239E1,3.033476E1,2.529644E0,6.4737167E0,1.4932514E1,1.6323828E1,1.3174805E1,1.6917114E0,1.027843E0,2.177198E0,7.721746E-1,0E0,0E0,8.065319E0,1.6407072E1,3.045536E0,6.4263153E-1,1.3441131E0,0E0,7.309893E0,7.586422E0,1.395267E1,1.2684319E1,1.0887097E0,0E0,0E0,6.864373E0,0E0,0E0,0E0,0E0,0E0,0E0,0E0,0E0,0E0,0E0,0E0,0E0,0E0,0E0,0E0,0E0,0E0,0E0,0E0,0E0,0E0,0E0,0E0,0E0,0E0,0E0,0E0,0E0,0E0,0E0,0E0,0E0,0E0,0E0,0E0,0E0,0E0,0E0,0E0,0E0,0E0,0E0,0E0,0E0,0E0,0E0],"parents":[2147483647,0,0,1,1,2,2,3,3,4,4,5,5,6,6,7,7,8,8,9,9,10,10,11,11,12,12,13,13,14,14,15,15,16,16,17,17,18,18,19,19,20,20,21,21,23,23,25,25,26,26,27,27,28,28,29,29,30,30,31,31,32,32,33,33,34,34,35,35,36,36,37,37,38,38,39,39,40,40,41,41,42,42,45,45,46,46,47,47,48,48,49,49,51,51,52,52,53,53,54,54,55,55,58,58],"right_children":[2,4,6,8,10,12,14,16,18,20,22,24,26,28,30,32,34,36,38,40,42,44,-1,46,-1,48,50,52,54,56,58,60,62,64,66,68,70,72,74,76,78,80,82,-1,-1,84,86,88,90,92,-1,94,96,98,100,102,-1,-1,104,-1,-1,-1,-1,-1,-1,-1,-1,-1,-1,-1,-1,-1,-1,-1,-1,-1,-1,-1,-1,-1,-1,-1,-1,-1,-1,-1,-1,-1,-1,-1,-1,-1,-1,-1,-1,-1,-1,-1,-1,-1,-1,-1,-1,-1,-1],"split_conditions":[5.795782E-1,2.5270567E0,9.7024256E-1,8.077366E-1,-4.0988818E-1,1.2470534E0,2.5820036E0,1.7279038E0,-2.7860412E-1,1.08343154E-1,-1.0417597E0,2.5270567E0,2.8680644E0,9.1241914E-1,-5.959856E-1,9.953156E-2,1.3673621E0,-3.5351825E-1,9.7024256E-1,-6.8835855E-1,1.57447E-2,1.0424511E0,2.9875356E-1,8.077366E-1,3.2899016E-1,1.4377605E0,9.1241914E-1,7.7028537E-1,9.9088997E-1,2.7727108E0,-5.7324165E-1,1.3809966E0,1.5814592E0,2.550264E-1,6.4609164E-1,-1.8996152E0,-3.5020387E-1,1.0809401E0,9.1241914E-1,1.9816384E-1,-1.1889931E0,-1.0417597E0,9.1241914E-1,-7.313143E-2,2.1426322E-1,8.5125315E-1,4.2463106E-1,8.077366E-1,1.7474002E0,3.3448324E0,-3.5165548E-1,-1.5057539E0,1.7427397E0,4.452621E-1,1.3424069E0,1.9201969E-1,-3.7162024E-1,3.6279672E-1,3.1541252E0,4.974966E-2,-1.6620915E-1,-1.21074654E-1,1.8513808E-1,-1.9245605E-1,1.1425355E-1,-1.4053652E-1,-5.166366E-1,2.5364113E-1,-2.5826618E-1,-2.6067877E-1,-5.4465752E-2,2.5909157E-2,-2.6042363E-1,-3.2968976E-2,-2.1689707E-1,-1.4937931E-1,2.042845E-1,-3.98312E-3,2.5113568E-1,6.831228E-2,-3.299698E-1,2.748672E-1,-7.6502184E-3,9.674602E-2,2.5314203E-1,-1.7286488E-1,1.3456914E-1,2.4823998E-1,4.396782E-3,2.931257E-1,2.738191E-2,2.7186158E-1,-4.7854226E-2,3.7033573E-1,-6.1534736E-2,1.9431542E-1,2.5304545E-2,-6.082126E-2,1.2049427E-1,-4.0016958E-1,2.5003282E-2,-2.5895557E-1,4.1579235E-2,-3.154026E-2,-3.5805935E-1],"split_indices":[2,5,7,5,4,2,2,9,2,0,3,5,2,1,8,4,4,4,7,0,8,4,0,5,0,2,1,2,4,2,8,0,4,4,6,2,3,0,1,2,8,3,1,0,0,8,4,5,4,2,0,0,10,4,2,4,0,0,2,0,0,0,0,0,0,0,0,0,0,0,0,0,0,0,0,0,0,0,0,0,0,0,0,0,0,0,0,0,0,0,0,0,0,0,0,0,0,0,0,0,0,0,0,0,0],"split_type":[0,0,0,0,0,0,0,0,0,0,0,0,0,0,0,0,0,0,0,0,0,0,0,0,0,0,0,0,0,0,0,0,0,0,0,0,0,0,0,0,0,0,0,0,0,0,0,0,0,0,0,0,0,0,0,0,0,0,0,0,0,0,0,0,0,0,0,0,0,0,0,0,0,0,0,0,0,0,0,0,0,0,0,0,0,0,0,0,0,0,0,0,0,0,0,0,0,0,0,0,0,0,0,0,0],"sum_hessian":[2.3778782E3,1.6445159E3,7.3336224E2,1.589748E3,5.4767822E1,3.380568E2,3.9530548E2,1.01972864E3,5.700194E2,2.2442139E1,3.2325684E1,2.1918912E2,1.1886767E2,3.518891E2,4.3416374E1,7.187755E2,3.009531E2,2.6153616E2,3.0848322E2,1.5528956E1,6.913182E0,3.267623E0,2.905806E1,2.0314763E2,1.6041494E1,1.12633965E2,6.2337103E0,1.7663649E2,1.7525261E2,1.2169013E1,3.1247362E1,2.7486316E2,4.4391235E2,2.9034988E2,1.060322E1,1.16649025E2,1.4488715E2,1.6834213E2,1.401411E2,2.9053497E0,1.2623607E1,3.5907793E0,3.3224025E0,1.6452874E0,1.6223356E0,1.4241927E2,6.0728355E1,2.6633839E1,8.600012E1,4.7377377E0,1.4959722E0,3.170289E1,1.449336E2,1.5115579E2,2.4096815E1,3.1837475E0,8.985266E0,1.7209101E0,2.9526451E1,2.5741287E2,1.7450283E1,4.10259E2,3.3653362E1,3.176147E1,2.585884E2,3.1707435E0,7.432477E0,1.5121794E0,1.1513685E2,4.5961292E1,9.892585E1,1.4899039E2,1.935174E1,6.892112E1,7.121997E1,1.4213334E0,1.4840163E0,1.576338E0,1.1047269E1,1.6235257E0,1.9672537E0,2.1988044E0,1.123598E0,9.9576904E1,4.284236E1,2.8459024E1,3.2269333E1,2.0736942E1,5.8968954E0,8.495422E1,1.0459015E0,3.4917555E0,1.2459823E0,3.0034742E0,2.8699415E1,1.1437056E2,3.0563032E1,7.888288E1,7.227292E1,1.2210007E1,1.1886808E1,1.80987E0,1.3738774E0,2.2629128E1,6.8973236E0],"tree_param":{"num_deleted":"0","num_feature":"11","num_nodes":"105","size_leaf_vector":"1"}},{"base_weights":[3.1758298E-3,-1.729132E-1,1.7720088E-1,-7.6335534E-3,-3.2804477E-1,1.3267055E-1,9.4742185E-1,1.3163705E-1,-1.8069734E-1,1.2046369E0,-3.5500404E-1,2.4638E-1,-8.9937195E-2,5.0051326E-1,1.0568403E0,-4.5031944E-1,1.8380636E-1,-2.2150934E-1,9.3361336E-1,-2.796886E-2,1.4244788E0,-5.241225E-1,-1.9408506E-1,1.4205596E-1,4.7587374E-1,-3.4023088E-1,8.069039E-2,1.1697012E-1,2.792953E-1,3.277334E-1,3.363806E-1,2.0987892E-1,-1.3588604E0,-9.702481E-4,3.9525965E-1,-3.6480477E-1,1.8312251E-2,3.861937E-1,1.436956E0,1.7607735E0,6.288398E-1,-2.2469985E-1,-7.3464155E-1,1.1074762E0,-2.3195098E-1,4.6288723E-1,-6.32694E-2,-6.181802E-1,5.531899E-1,8.803794E-3,-5.290256E-1,-3.7234508E-2,5.961819E-1,6.371832E-1,-2.6357463E-1,2.0333579E-1,-4.7663655E-2,-2.674162E-1,3.1579536E-1,-6.6244684E-2,-4.5184642E-1,1.8966794E-2,-3.389137E-1,1.4452495E-1,-8.430529E-2,-1.7064454E-1,-1.5337291E-2,1.4930679E-1,-1.05607055E-1,3.9408144E-1,-3.1825894E-1,5.166037E-1,1.5442728E-1,5.9230876E-1,1.7251365E-1,-9.635E-4,2.992104E-1,2.493509E-3,-3.120537E-1,-1.6368178E-1,-3.0221966E-1,-1.04670234E-1,4.496121E-1,2.9213533E-2,-1.18069425E-1,4.063425E-2,1.9343792E-1,-4.5633238E-2,2.070177E-1,-2.0122088E-3,-4.041552E-1,1.7407544E-1,-5.553095E-1,-1.9254592E-1,1.7982998E-1,-2.0584317E-1,4.8495002E-2,3.4299597E-2,-1.8757075E-1,2.0900607E-1,-2.4238035E-1,4.4347666E-2,2.308501E-1,-1.807955E-1,1.9721116E-1],"categories":[],"categories_nodes":[],"categories_segments":[],"categories_sizes":[],"default_left":[0,0,0,0,0,0,0,0,0,0,0,0,0,0,0,0,0,0,0,0,0,0,0,0,0,0,0,0,0,0,0,0,0,0,0,0,0,0,0,0,0,0,0,0,0,0,0,0,0,0,0,0,0,0,0,0,0,0,0,0,0,0,0,0,0,0,0,0,0,0,0,0,0,0,0,0,0,0,0,0,0,0,0,0,0,0,0,0,0,0,0,0,0,0,0,0,0,0,0,0,0,0,0,0,0],"id":6,"left_children":[1,3,5,7,9,11,13,15,17,19,21,23,25,27,29,31,33,35,37,-1,39,41,43,45,47,49,51,53,-1,-1,55,57,59,61,63,65,67,69,71,73,75,77,79,81,83,85,87,89,91,93,95,97,99,101,103,-1,-1,-1,-1,-1,-1,-1,-1,-1,-1,-1,-1,-1,-1,-1,-1,-1,-1,-1,-1,-1,-1,-1,-1,-1,-1,-1,-1,-1,-1,-1,-1,-1,-1,-1,-1,-1,-1,-1,-1,-1,-1,-1,-1,-1,-1,-1,-1,-1,-1],"loss_changes":[6.93488E1,2.8839153E1,3.891212E1,1.3175262E1,2.440242E1,2.7287466E1,2.505043E0,9.27945E0,1.1290747E1,3.0594091E0,1.5436737E1,1.7008266E1,1.5611954E1,2.2195153E0,8.8796616E-1,1.5407089E1,1.0889934E1,8.114223E0,1.8706012E0,0E0,1.256134E0,1.734594E1,1.47546625E1,3.2423622E1,1.9160316E1,9.764954E0,1.3262095E1,1.8707453E0,0E0,0E0,7.4169874E-1,1.5293645E1,1.4683552E0,1.0920692E1,7.737734E0,9.424707E0,1.600968E1,8.887845E0,2.2254372E-1,2.9632568E-1,9.767842E-1,2.2074368E1,7.8380966E0,5.359892E0,1.5296305E1,1.13500595E1,2.0232166E1,6.74717E0,1.4627396E1,2.0742678E1,1.0543777E1,1.5952244E1,6.2933874E0,1.404922E-1,2.1683128E0,0E0,0E0,0E0,0E0,0E0,0E0,0E0,0E0,0E0,0E0,0E0,0E0,0E0,0E0,0E0,0E0,0E0,0E0,0E0,0E0,0E0,0E0,0E0,0E0,0E0,0E0,0E0,0E0,0E0,0E0,0E0,0E0,0E0,0E0,0E0,0E0,0E0,0E0,0E0,0E0,0E0,0E0,0E0,0E0,0E0,0E0,0E0,0E0,0E0,0E0],"parents":[2147483647,0,0,1,1,2,2,3,3,4,4,5,5,6,6,7,7,8,8,9,9,10,10,11,11,12,12,13,13,14,14,15,15,16,16,17,17,18,18,20,20,21,21,22,22,23,23,24,24,25,25,26,26,27,27,30,30,31,31,32,32,33,33,34,34,35,35,36,36,37,37,38,38,39,39,40,40,41,41,42,42,43,43,44,44,45,45,46,46,47,47,48,48,49,49,50,50,51,51,52,52,53,53,54,54],"right_children":[2,4,6,8,10,12,14,16,18,20,22,24,26,28,30,32,34,36,38,-1,40,42,44,46,48,50,52,54,-1,-1,56,58,60,62,64,66,68,70,72,74,76,78,80,82,84,86,88,90,92,94,96,98,100,102,104,-1,-1,-1,-1,-1,-1,-1,-1,-1,-1,-1,-1,-1,-1,-1,-1,-1,-1,-1,-1,-1,-1,-1,-1,-1,-1,-1,-1,-1,-1,-1,-1,-1,-1,-1,-1,-1,-1,-1,-1,-1,-1,-1,-1,-1,-1,-1,-1,-1,-1],"split_conditions":[1.0281024E-1,9.1241914E-1,2.5270567E0,9.7024256E-1,-2.3852298E0,8.077366E-1,3.88871E-1,-1.3195119E0,1.5814592E0,-5.646649E-1,5.080581E-1,1.7279038E0,-7.514119E-1,4.4951794E-1,2.5820036E0,5.106681E-1,-3.7395772E-1,-2.7860412E-1,5.747256E-1,-2.796886E-2,6.8712986E-1,-3.2622144E-1,5.180133E-1,-2.9848715E-2,2.3371805E-1,6.4609164E-1,1.7427397E0,-3.9864886E-1,2.792953E-1,3.277334E-1,-4.685848E-2,2.8335378E-1,-6.959818E-1,1.4844643E0,1.0246599E0,5.613258E-1,-4.4628575E-1,-5.860234E-1,-4.4259573E-3,8.077366E-1,7.456651E-3,1.4006604E-1,-3.7395772E-1,-1.0208211E-2,-6.7425627E-1,5.795782E-1,1.4885424E0,4.9227048E-2,1.5026345E0,3.4135196E-1,9.050449E-1,9.9741554E-1,1.3786857E0,1.9816384E-1,1.2257949E0,2.0333579E-1,-4.7663655E-2,-2.674162E-1,3.1579536E-1,-6.6244684E-2,-4.5184642E-1,1.8966794E-2,-3.389137E-1,1.4452495E-1,-8.430529E-2,-1.7064454E-1,-1.5337291E-2,1.4930679E-1,-1.05607055E-1,3.9408144E-1,-3.1825894E-1,5.166037E-1,1.5442728E-1,5.9230876E-1,1.7251365E-1,-9.635E-4,2.992104E-1,2.493509E-3,-3.120537E-1,-1.6368178E-1,-3.0221966E-1,-1.04670234E-1,4.496121E-1,2.9213533E-2,-1.18069425E-1,4.063425E-2,1.9343792E-1,-4.5633238E-2,2.070177E-1,-2.0122088E-3,-4.041552E-1,1.7407544E-1,-5.553095E-1,-1.9254592E-1,1.7982998E-1,-2.0584317E-1,4.8495002E-2,3.4299597E-2,-1.8757075E-1,2.0900607E-1,-2.4238035E-1,4.4347666E-2,2.308501E-1,-1.807955E-1,1.9721116E-1],"split_indices":[2,1,5,7,0,5,2,0,4,2,4,9,4,4,2,4,2,2,8,0,3,0,4,4,4,6,10,0,0,0,0,8,3,0,4,8,8,8,3,5,2,4,2,8,8,2,4,8,4,3,0,4,3,2,0,0,0,0,0,0,0,0,0,0,0,0,0,0,0,0,0,0,0,0,0,0,0,0,0,0,0,0,0,0,0,0,0,0,0,0,0,0,0,0,0,0,0,0,0,0,0,0,0,0,0],"split_type":[0,0,0,0,0,0,0,0,0,0,0,0,0,0,0,0,0,0,0,0,0,0,0,0,0,0,0,0,0,0,0,0,0,0,0,0,0,0,0,0,0,0,0,0,0,0,0,0,0,0,0,0,0,0,0,0,0,0,0,0,0,0,0,0,0,0,0,0,0,0,0,0,0,0,0,0,0,0,0,0,0,0,0,0,0,0,0,0,0,0,0,0,0,0,0,0,0,0,0,0,0,0,0,0,0],"sum_hessian":[2.261054E3,1.1238656E3,1.1371884E3,5.4464325E2,5.792223E2,1.0761434E3,6.1045002E1,3.0191824E2,2.4272502E2,9.257087E0,5.699652E2,7.122267E2,3.6391672E2,1.3102687E1,4.7942314E1,2.4210836E1,2.7770743E2,2.3492213E2,7.802887E0,1.4243232E0,7.832763E0,2.76802E2,2.931632E2,4.907561E2,2.2147055E2,1.4711688E2,2.1679984E2,7.6015487E0,5.501138E0,4.5192627E1,2.7496872E0,1.4467157E1,9.743679E0,1.4873341E2,1.28974E2,1.4672911E2,8.819303E1,4.58435E0,3.2185366E0,4.6530256E0,3.1797376E0,1.15125565E2,1.6167645E2,7.4892344E0,2.8567395E2,1.9102129E2,2.9973483E2,1.4156398E1,2.0731416E2,5.1977226E1,9.5139656E1,1.7719264E2,3.960718E1,2.9265256E0,4.675023E0,1.4095036E0,1.3401836E0,6.2467403E0,8.220417E0,1.4029745E0,8.340705E0,1.4162314E2,7.1102867E0,1.1460467E2,1.4369324E1,8.841362E1,5.8315487E1,3.8287857E1,4.9905178E1,2.8500142E0,1.7343359E0,1.7960715E0,1.4224651E0,3.379212E0,1.2738138E0,1.5362489E0,1.6434888E0,9.031045E1,2.4815117E1,9.726608E1,6.441036E1,1.6087554E0,5.8804793E0,9.417194E1,1.9150201E2,6.884371E1,1.2217758E2,2.6882938E2,3.090545E1,8.247647E0,5.908751E0,2.0575684E2,1.5573151E0,2.4691254E1,2.7285975E1,7.7513145E1,1.7626507E1,1.4151938E2,3.5673267E1,3.7431694E1,2.175489E0,1.0735068E0,1.8530189E0,3.669565E0,1.0054581E0],"tree_param":{"num_deleted":"0","num_feature":"11","num_nodes":"105","size_leaf_vector":"1"}},{"base_weights":[2.754468E-3,-2.723249E-2,8.099551E-1,-2.1615094E-1,6.2095143E-2,6.054988E-1,1.0069771E0,-1.0412701E-1,-4.4391197E-1,1.8522274E-1,-6.047963E-2,3.2550442E-1,8.166504E-1,3.1623775E-1,2.8231987E-1,3.582335E-2,-2.8957903E-1,-7.0020866E-1,-2.6187438E-1,1.18341915E-1,6.9598985E-1,9.688119E-2,-2.075813E-1,9.8500244E-2,2.5720122E-1,8.710713E-1,-8.077647E-3,1.728886E-1,-3.919117E-2,1.5429582E-1,-1.7624485E-1,-4.149389E-1,1.1660716E-1,5.3722095E-1,-7.601359E-1,7.0605636E-1,-3.0059743E-1,-4.1331884E-1,1.4218177E-1,7.4558586E-1,-9.347997E-2,1.4979224E-1,-3.9312246E-1,-1.1609246E-1,-8.5791117E-1,5.768029E-1,-1.1148784E-1,9.206284E-2,9.030909E-1,1.1001281E-1,-8.4674716E-2,-2.1080719E-1,4.705461E-2,-4.231271E-3,-1.6081244E-1,5.6030536E-1,-1.1287194E-2,5.168756E-1,-2.2815998E-1,2.2525637E-1,-2.3912583E-1,1.0658975E-2,-1.4634284E-1,-6.1939258E-2,-4.5367923E-1,4.7113054E-2,-2.291838E-1,2.513548E-1,1.353698E-1,1.2739407E-1,-2.7660352E-1,7.334192E-2,-5.672326E-2,-2.4827625E-1,-3.246532E-2,1.994502E-1,-4.6544038E-2,-2.822076E-1,3.0670983E-1,-5.0300818E-2,2.531669E-1,1.8343256E-1,-7.997911E-2,2.9332834E-1,1.4654405E-1],"categories":[],"categories_nodes":[],"categories_segments":[],"categories_sizes":[],"default_left":[0,0,0,0,0,0,0,0,0,0,0,0,0,0,0,0,0,0,0,0,0,0,0,0,0,0,0,0,0,0,0,0,0,0,0,0,0,0,0,0,0,0,0,0,0,0,0,0,0,0,0,0,0,0,0,0,0,0,0,0,0,0,0,0,0,0,0,0,0,0,0,0,0,0,0,0,0,0,0,0,0,0,0,0,0],"id":7,"left_children":[1,3,5,7,9,11,13,15,17,19,21,23,25,-1,27,29,31,33,35,37,39,41,43,45,-1,47,-1,-1,-1,49,51,53,55,57,59,-1,61,63,65,67,69,71,73,75,77,79,81,-1,83,-1,-1,-1,-1,-1,-1,-1,-1,-1,-1,-1,-1,-1,-1,-1,-1,-1,-1,-1,-1,-1,-1,-1,-1,-1,-1,-1,-1,-1,-1,-1,-1,-1,-1,-1,-1],"loss_changes":[5.2740383E1,3.5467537E1,2.5340729E0,1.7168386E1,2.1551155E1,2.1467667E0,1.0088005E0,1.1782111E1,1.0180428E1,2.4248339E1,1.6593296E1,2.2343256E0,1.0610209E0,0E0,5.2465725E-1,6.5439487E0,9.9867935E0,7.2049904E0,1.4023296E1,8.056337E0,3.2905464E0,9.045094E0,2.1936253E1,1.5297712E0,0E0,1.06954575E-1,0E0,0E0,0E0,1.5584161E1,1.6494442E1,7.2430477E0,1.2712729E1,8.726386E0,5.5023804E0,0E0,8.226102E0,5.9016953E0,8.262578E0,1.7269325E0,2.8602834E0,1.0106213E1,4.125783E0,1.004088E1,8.047047E0,1.0588205E0,1.393931E0,0E0,1.2932587E-1,0E0,0E0,0E0,0E0,0E0,0E0,0E0,0E0,0E0,0E0,0E0,0E0,0E0,0E0,0E0,0E0,0E0,0E0,0E0,0E0,0E0,0E0,0E0,0E0,0E0,0E0,0E0,0E0,0E0,0E0,0E0,0E0,0E0,0E0,0E0,0E0],"parents":[2147483647,0,0,1,1,2,2,3,3,4,4,5,5,6,6,7,7,8,8,9,9,10,10,11,11,12,12,14,14,15,15,16,16,17,17,18,18,19,19,20,20,21,21,22,22,23,23,25,25,29,29,30,30,31,31,32,32,33,33,34,34,36,36,37,37,38,38,39,39,40,40,41,41,42,42,43,43,44,44,45,45,46,46,48,48],"right_children":[2,4,6,8,10,12,14,16,18,20,22,24,26,-1,28,30,32,34,36,38,40,42,44,46,-1,48,-1,-1,-1,50,52,54,56,58,60,-1,62,64,66,68,70,72,74,76,78,80,82,-1,84,-1,-1,-1,-1,-1,-1,-1,-1,-1,-1,-1,-1,-1,-1,-1,-1,-1,-1,-1,-1,-1,-1,-1,-1,-1,-1,-1,-1,-1,-1,-1,-1,-1,-1,-1,-1],"split_conditions":[2.5270567E0,-2.7860412E-1,3.88871E-1,8.077366E-1,9.7024256E-1,-4.0988818E-1,2.5820036E0,9.7024256E-1,-3.5351825E-1,1.2470534E0,9.1241914E-1,1.099705E0,1.5301195E0,3.1623775E-1,-4.685848E-2,3.905107E-1,1.099705E0,-1.3875376E0,-3.0706096E-1,-1.530068E0,2.8680644E0,2.1052356E0,1.3786857E0,-6.959818E-1,2.5720122E-1,-1.416453E0,-8.077647E-3,1.728886E-1,-3.919117E-2,6.8712986E-1,-4.4259573E-3,-6.693865E-2,1.1221329E0,-9.4607925E-1,-1.8996152E0,7.0605636E-1,-5.4305744E-1,8.53311E-1,1.6877007E0,8.077366E-1,9.1241914E-1,1.7427397E0,2.4122466E-1,-1.77477E0,2.0638838E0,-1.8325053E-1,-1.6021638E0,9.206284E-2,9.796151E-1,1.1001281E-1,-8.4674716E-2,-2.1080719E-1,4.705461E-2,-4.231271E-3,-1.6081244E-1,5.6030536E-1,-1.1287194E-2,5.168756E-1,-2.2815998E-1,2.2525637E-1,-2.3912583E-1,1.0658975E-2,-1.4634284E-1,-6.1939258E-2,-4.5367923E-1,4.7113054E-2,-2.291838E-1,2.513548E-1,1.353698E-1,1.2739407E-1,-2.7660352E-1,7.334192E-2,-5.672326E-2,-2.4827625E-1,-3.246532E-2,1.994502E-1,-4.6544038E-2,-2.822076E-1,3.0670983E-1,-5.0300818E-2,2.531669E-1,1.8343256E-1,-7.997911E-2,2.9332834E-1,1.4654405E-1],"split_indices":[5,2,2,5,7,4,2,7,4,2,1,8,8,0,0,8,8,3,4,8,2,2,3,3,0,8,0,0,0,3,3,4,8,2,2,0,8,0,8,5,1,10,4,0,0,2,8,0,8,0,0,0,0,0,0,0,0,0,0,0,0,0,0,0,0,0,0,0,0,0,0,0,0,0,0,0,0,0,0,0,0,0,0,0,0],"split_type":[0,0,0,0,0,0,0,0,0,0,0,0,0,0,0,0,0,0,0,0,0,0,0,0,0,0,0,0,0,0,0,0,0,0,0,0,0,0,0,0,0,0,0,0,0,0,0,0,0,0,0,0,0,0,0,0,0,0,0,0,0,0,0,0,0,0,0,0,0,0,0,0,0,0,0,0,0,0,0,0,0,0,0,0,0],"sum_hessian":[2.176949E3,2.0999053E3,7.70438E1,6.7369415E2,1.4262112E3,3.980749E1,3.723631E1,4.525602E2,2.211339E2,7.1124615E2,7.14965E2,1.8206545E1,2.1600945E1,3.4534706E1,2.7016015E0,2.5838113E2,1.941791E2,9.0653435E1,1.3048047E2,6.299862E2,8.12599E1,3.4560175E2,3.6936328E2,1.359076E1,4.615785E0,2.0261253E1,1.3396906E0,1.347098E0,1.3545035E0,1.6594688E2,9.243425E1,1.4836742E2,4.581168E1,3.8195465E0,8.683389E1,1.0315311E0,1.2944893E2,2.6335348E1,6.036509E2,7.650905E1,4.7508574E0,3.1254694E2,3.3054802E1,3.2484268E2,4.4520576E1,3.613419E0,9.977342E0,1.6565394E0,1.8604713E1,1.1173766E2,5.420922E1,3.539065E1,5.7043594E1,3.4684013E1,1.13683395E2,2.8090644E0,4.3002613E1,1.8247455E0,1.9948008E0,1.6115746E0,8.522231E1,4.659707E1,8.285187E1,2.3163208E1,3.1721401E0,5.947233E2,8.927585E0,5.6844906E1,1.9664145E1,3.2228813E0,1.5279758E0,2.4450919E2,6.803775E1,1.2336892E1,2.071791E1,1.4708558E1,3.1013412E2,4.3121807E1,1.3987678E0,1.0523493E0,2.5610697E0,1.24282E0,8.734522E0,1.4614431E1,3.9902833E0],"tree_param":{"num_deleted":"0","num_feature":"11","num_nodes":"85","size_leaf_vector":"1"}},{"base_weights":[2.7664346E-3,-2.0462494E-2,7.355785E-1,6.1880987E-2,-1.8289112E-1,5.2797633E-1,9.6159256E-1,1.2589633E0,4.6882037E-2,-4.081348E-1,-3.400632E-2,2.8035662E-1,7.387933E-1,3.0693206E-1,2.3859802E-1,4.6324816E-1,7.6580065E-1,-4.120748E-2,2.505905E-1,-1.930396E-1,-6.332431E-1,1.0973145E-2,-6.766163E-1,1.0381688E-2,6.401994E-1,7.19342E-2,8.326014E-1,1.478097E-1,-3.2237824E-2,-3.0171648E-1,3.7369025E-1,2.0945467E-1,-1.858349E-1,2.954766E-1,-9.5236963E-1,-5.9515226E-1,-4.9548313E-2,-2.511288E-1,-7.7179897E-1,6.303718E-1,-2.2928843E-2,-9.3167496E-1,4.943114E-1,3.3699003E-1,-5.2283835E-1,8.31965E-1,1.6797602E-1,1.9567642E-1,-1.60424E-1,7.912226E-2,8.733852E-1,-1.8180278E-1,7.571686E-2,-8.4310815E-2,6.330416E-2,-9.631404E-2,1.164348E-1,-2.4481466E-2,-3.8895658E-1,-3.1084862E-1,1.9253653E-2,2.3080789E-1,-9.071344E-2,-2.962147E-1,1.0759944E-1,2.375056E-1,-2.4132214E-1,7.7610844E-1,1.0471649E-1,-2.212694E-1,2.1722652E-3,-3.7180465E-1,-2.443949E-2,-6.531065E-2,2.517918E-1,9.9376746E-2,-3.1602603E-1,6.756106E-2,2.8924984E-1,1.9783805E-1,-1.2139764E-1,2.7717596E-1,8.221522E-2],"categories":[],"categories_nodes":[],"categories_segments":[],"categories_sizes":[],"default_left":[0,0,0,0,0,0,0,0,0,0,0,0,0,0,0,0,0,0,0,0,0,0,0,0,0,0,0,0,0,0,0,0,0,0,0,0,0,0,0,0,0,0,0,0,0,0,0,0,0,0,0,0,0,0,0,0,0,0,0,0,0,0,0,0,0,0,0,0,0,0,0,0,0,0,0,0,0,0,0,0,0,0,0],"id":8,"left_children":[1,3,5,7,9,11,13,15,17,19,21,23,25,-1,27,-1,29,31,33,35,37,39,41,43,45,47,49,-1,-1,-1,-1,51,53,55,57,59,61,63,65,67,69,71,-1,73,75,77,79,-1,-1,-1,81,-1,-1,-1,-1,-1,-1,-1,-1,-1,-1,-1,-1,-1,-1,-1,-1,-1,-1,-1,-1,-1,-1,-1,-1,-1,-1,-1,-1,-1,-1,-1,-1],"loss_changes":[3.6026035E1,2.7449682E1,2.5433197E0,2.4397251E1,2.3138508E1,1.677927E0,1.0863094E0,1.182703E0,2.4168617E1,1.3176205E1,1.2052921E1,1.7631392E0,1.1220007E0,0E0,3.738801E-1,0E0,8.176792E0,3.4142166E1,2.2234118E1,8.157337E0,6.8881264E0,8.213674E0,1.7706177E1,2.1658747E0,5.6590676E-1,1.5544633E0,1.5172768E-1,0E0,0E0,0E0,0E0,1.2219943E1,2.261636E1,2.2553402E1,4.3477154E0,1.0890404E1,2.2109379E1,1.7000751E1,5.6170235E0,1.0269504E1,8.007752E0,6.4959717E0,0E0,2.3262684E0,2.493195E0,2.0711732E-1,1.2528878E0,0E0,0E0,0E0,1.9911575E-1,0E0,0E0,0E0,0E0,0E0,0E0,0E0,0E0,0E0,0E0,0E0,0E0,0E0,0E0,0E0,0E0,0E0,0E0,0E0,0E0,0E0,0E0,0E0,0E0,0E0,0E0,0E0,0E0,0E0,0E0,0E0,0E0],"parents":[2147483647,0,0,1,1,2,2,3,3,4,4,5,5,6,6,7,7,8,8,9,9,10,10,11,11,12,12,14,14,16,16,17,17,18,18,19,19,20,20,21,21,22,22,23,23,24,24,25,25,26,26,31,31,32,32,33,33,34,34,35,35,36,36,37,37,38,38,39,39,40,40,41,41,43,43,44,44,45,45,46,46,50,50],"right_children":[2,4,6,8,10,12,14,16,18,20,22,24,26,-1,28,-1,30,32,34,36,38,40,42,44,46,48,50,-1,-1,-1,-1,52,54,56,58,60,62,64,66,68,70,72,-1,74,76,78,80,-1,-1,-1,82,-1,-1,-1,-1,-1,-1,-1,-1,-1,-1,-1,-1,-1,-1,-1,-1,-1,-1,-1,-1,-1,-1,-1,-1,-1,-1,-1,-1,-1,-1,-1,-1],"split_conditions":[2.5270567E0,8.077366E-1,3.88871E-1,-2.3852298E0,-7.514119E-1,-4.0988818E-1,2.5820036E0,6.8712986E-1,1.7279038E0,9.1241914E-1,1.4587688E0,3.578347E-1,-1.0417597E0,3.0693206E-1,-4.685848E-2,4.6324816E-1,-1.8325053E-1,-2.9848715E-2,1.3673621E0,-6.780118E-1,-9.5069355E-1,-1.77477E0,1.8301697E0,-3.448338E-1,9.1241914E-1,5.471202E-1,-1.416453E0,1.478097E-1,-3.2237824E-2,-3.0171648E-1,3.7369025E-1,-1.4436733E0,1.2315104E0,3.265945E-1,6.4609164E-1,3.79151E-1,-2.3310044E-1,1.0281024E-1,-1.8996152E0,-1.3274937E0,-1.4747136E0,7.8088355E-1,4.943114E-1,-6.080692E-1,-6.959818E-1,-6.055844E-1,-1.0417597E0,1.9567642E-1,-1.60424E-1,7.912226E-2,1.3541968E0,-1.8180278E-1,7.571686E-2,-8.4310815E-2,6.330416E-2,-9.631404E-2,1.164348E-1,-2.4481466E-2,-3.8895658E-1,-3.1084862E-1,1.9253653E-2,2.3080789E-1,-9.071344E-2,-2.962147E-1,1.0759944E-1,2.375056E-1,-2.4132214E-1,7.7610844E-1,1.0471649E-1,-2.212694E-1,2.1722652E-3,-3.7180465E-1,-2.443949E-2,-6.531065E-2,2.517918E-1,9.9376746E-2,-3.1602603E-1,6.756106E-2,2.8924984E-1,1.9783805E-1,-1.2139764E-1,2.7717596E-1,8.221522E-2],"split_indices":[5,5,2,0,4,4,2,3,9,1,8,8,3,0,0,0,2,4,4,0,8,0,4,8,1,8,8,0,0,0,0,0,4,4,6,8,0,2,2,2,0,0,0,8,3,0,3,0,0,0,4,0,0,0,0,0,0,0,0,0,0,0,0,0,0,0,0,0,0,0,0,0,0,0,0,0,0,0,0,0,0,0,0],"split_type":[0,0,0,0,0,0,0,0,0,0,0,0,0,0,0,0,0,0,0,0,0,0,0,0,0,0,0,0,0,0,0,0,0,0,0,0,0,0,0,0,0,0,0,0,0,0,0,0,0,0,0,0,0,0,0,0,0,0,0,0,0,0,0,0,0,0,0,0,0,0,0,0,0,0,0,0,0,0,0,0,0,0,0],"sum_hessian":[2.1145005E3,2.0504758E3,6.402461E1,1.3610886E3,6.8938727E2,3.511043E1,2.8914185E1,1.5816543E1,1.3452721E3,2.736494E2,4.1573785E2,1.7217316E1,1.7893114E1,2.6264439E1,2.6497457E0,8.670966E0,7.145576E0,9.397111E2,4.0556094E2,1.4088689E2,1.3276253E2,3.894605E2,2.6277351E1,1.0424844E1,6.792472E0,2.4245307E0,1.5468583E1,1.2835323E0,1.3662134E0,1.2893559E0,5.8562202E0,3.4365482E2,5.9605634E2,3.9169983E2,1.3861122E1,3.6224777E1,1.0466212E2,3.6077946E1,9.668457E1,1.9297419E1,3.701631E2,2.4218864E1,2.058487E0,6.6931562E0,3.7316878E0,4.2889605E0,2.5035117E0,1.2007928E0,1.2237381E0,1.5343242E0,1.3934258E1,1.6532751E1,3.2712207E2,4.8096753E2,1.150888E2,5.084647E1,3.4085333E2,4.276912E0,9.584209E0,2.1363644E1,1.4861135E1,2.420851E1,8.0453606E1,1.6063711E1,2.0014236E1,1.4996797E0,9.518489E1,1.3954495E0,1.7901968E1,1.4044371E1,3.561187E2,1.744733E1,6.771534E0,3.450014E0,3.2431424E0,1.5738639E0,2.157824E0,1.2509557E0,3.0380049E0,1.2656221E0,1.2378894E0,1.2351252E1,1.5830072E0],"tree_param":{"num_deleted":"0","num_feature":"11","num_nodes":"83","size_leaf_vector":"1"}},{"base_weights":[2.1740699E-3,-1.5940404E-2,6.65463E-1,9.0004705E-2,-1.18626356E-1,4.6073556E-1,9.169136E-1,2.4089045E-3,2.6835698E-1,-3.6294916E-1,-5.5898562E-2,2.4198586E-1,6.67259E-1,2.9876947E-1,2.027643E-1,-5.5418313E-2,1.6759413E-1,3.0897403E-1,-3.5172203E-1,2.6477858E-1,-4.254817E-1,-1.3603769E-1,1.3147373E-1,7.5023904E-2,2.4401E-1,6.854591E-2,7.658195E-1,-6.744564E-2,1.9645064E-1,4.2152184E-1,-1.0531301E-1,-2.7870768E-1,3.5911086E-1,2.2005416E-1,5.2784204E-1,-6.129443E-1,5.732945E-1,-2.714845E-1,1.1064514E0,-2.8822201E-1,-6.293367E-1,-2.189174E-1,2.632761E-1,3.4531787E-1,-2.936616E-1,5.177714E-1,-1.02887996E-1,-1.4504653E-1,1.786784E-1,6.7878656E-2,8.1082445E-1,-1.2134473E-1,2.1816276E-1,-2.5954622E-1,-2.0901546E-2,-1.8888275E-1,1.3050185E-1,-2.080664E-1,1.4108826E-1,1.7535539E-1,3.7807856E-2,2.5723457E-1,6.894859E-2,1.6173784E-2,-2.5006938E-1,2.946502E-1,-6.601981E-2,-2.1630232E-1,3.6701033E-1,5.449841E-1,-2.4038072E-1,-1.8750416E-1,-9.759583E-3,9.1380835E-2,-2.385729E-1,2.878678E-1,-7.22241E-2,-3.1624675E-1,1.13027185E-1,-4.2432934E-2,1.8706378E-1,5.9920675E-3,-2.3930208E-1,-4.067512E-2,2.3191683E-1,6.014893E-2,-1.4715421E-1,2.604517E-1,7.05706E-2],"categories":[],"categories_nodes":[],"categories_segments":[],"categories_sizes":[],"default_left":[0,0,0,0,0,0,0,0,0,0,0,0,0,0,0,0,0,0,0,0,0,0,0,0,0,0,0,0,0,0,0,0,0,0,0,0,0,0,0,0,0,0,0,0,0,0,0,0,0,0,0,0,0,0,0,0,0,0,0,0,0,0,0,0,0,0,0,0,0,0,0,0,0,0,0,0,0,0,0,0,0,0,0,0,0,0,0,0,0],"id":9,"left_children":[1,3,5,7,9,11,13,15,17,19,21,23,25,-1,27,29,31,33,35,37,39,41,43,45,-1,47,49,-1,-1,51,53,55,57,59,61,63,65,67,69,71,73,75,77,79,81,83,85,-1,-1,-1,87,-1,-1,-1,-1,-1,-1,-1,-1,-1,-1,-1,-1,-1,-1,-1,-1,-1,-1,-1,-1,-1,-1,-1,-1,-1,-1,-1,-1,-1,-1,-1,-1,-1,-1,-1,-1,-1,-1],"loss_changes":[2.4713093E1,2.1793516E1,2.3923512E0,1.5404545E1,1.556923E1,1.2909546E0,1.1252766E0,6.3356295E0,8.288321E0,8.262623E0,1.2189453E1,1.5780905E0,8.8976526E-1,0E0,8.428643E-1,1.1736002E1,1.480003E1,5.8262653E0,5.288822E0,9.068309E0,5.112591E0,1.88637E1,2.2223791E1,1.1874026E0,0E0,1.2642113E0,1.4709139E-1,0E0,0E0,1.2093474E1,1.2006769E1,1.3347888E1,1.4461829E1,7.425996E0,8.39757E0,2.4602509E0,1.8433675E0,9.394974E0,1.1964802E1,9.875302E0,1.1907507E1,1.235091E1,1.50671015E1,2.2076685E1,1.2974468E1,8.2084215E-1,1.4042952E0,0E0,0E0,0E0,1.977396E-1,0E0,0E0,0E0,0E0,0E0,0E0,0E0,0E0,0E0,0E0,0E0,0E0,0E0,0E0,0E0,0E0,0E0,0E0,0E0,0E0,0E0,0E0,0E0,0E0,0E0,0E0,0E0,0E0,0E0,0E0,0E0,0E0,0E0,0E0,0E0,0E0,0E0,0E0],"parents":[2147483647,0,0,1,1,2,2,3,3,4,4,5,5,6,6,7,7,8,8,9,9,10,10,11,11,12,12,14,14,15,15,16,16,17,17,18,18,19,19,20,20,21,21,22,22,23,23,25,25,26,26,29,29,30,30,31,31,32,32,33,33,34,34,35,35,36,36,37,37,38,38,39,39,40,40,41,41,42,42,43,43,44,44,45,45,46,46,50,50],"right_children":[2,4,6,8,10,12,14,16,18,20,22,24,26,-1,28,30,32,34,36,38,40,42,44,46,-1,48,50,-1,-1,52,54,56,58,60,62,64,66,68,70,72,74,76,78,80,82,84,86,-1,-1,-1,88,-1,-1,-1,-1,-1,-1,-1,-1,-1,-1,-1,-1,-1,-1,-1,-1,-1,-1,-1,-1,-1,-1,-1,-1,-1,-1,-1,-1,-1,-1,-1,-1,-1,-1,-1,-1,-1,-1],"split_conditions":[2.5270567E0,9.1241914E-1,3.88871E-1,4.8422462E-1,-5.646649E-1,-4.0988818E-1,2.5820036E0,1.0329077E0,2.5820036E0,-1.5182008E0,1.7279038E0,1.1661954E0,-1.0417597E0,2.9876947E-1,-7.514119E-1,-1.4508089E0,1.8293995E-2,7.6058275E-1,9.4374394E-1,-1.6135544E0,3.2380944E-1,1.0805031E0,8.2217914E-1,-6.959818E-1,2.4401E-1,1.0424511E0,-1.416453E0,-6.744564E-2,1.9645064E-1,-1.6533811E0,-1.2869548E0,5.429077E-1,-1.2999532E0,-1.0417597E0,-1.2963268E-1,-1.0608425E0,1.0246599E0,1.3510287E0,9.7024256E-1,-8.440986E-1,-1.3195119E0,-2.3852298E0,-1.391074E0,4.8973796E-1,8.077366E-1,-4.693113E-1,9.7024256E-1,-1.4504653E-1,1.786784E-1,6.7878656E-2,1.3541968E0,-1.2134473E-1,2.1816276E-1,-2.5954622E-1,-2.0901546E-2,-1.8888275E-1,1.3050185E-1,-2.080664E-1,1.4108826E-1,1.7535539E-1,3.7807856E-2,2.5723457E-1,6.894859E-2,1.6173784E-2,-2.5006938E-1,2.946502E-1,-6.601981E-2,-2.1630232E-1,3.6701033E-1,5.449841E-1,-2.4038072E-1,-1.8750416E-1,-9.759583E-3,9.1380835E-2,-2.385729E-1,2.878678E-1,-7.22241E-2,-3.1624675E-1,1.13027185E-1,-4.2432934E-2,1.8706378E-1,5.9920675E-3,-2.3930208E-1,-4.067512E-2,2.3191683E-1,6.014893E-2,-1.4715421E-1,2.604517E-1,7.05706E-2],"split_indices":[5,1,2,2,2,4,2,3,2,2,9,8,3,0,4,8,4,8,4,2,8,4,4,3,0,4,8,0,0,8,8,0,8,3,0,0,4,8,7,8,0,0,8,4,5,2,7,0,0,0,4,0,0,0,0,0,0,0,0,0,0,0,0,0,0,0,0,0,0,0,0,0,0,0,0,0,0,0,0,0,0,0,0,0,0,0,0,0,0],"split_type":[0,0,0,0,0,0,0,0,0,0,0,0,0,0,0,0,0,0,0,0,0,0,0,0,0,0,0,0,0,0,0,0,0,0,0,0,0,0,0,0,0,0,0,0,0,0,0,0,0,0,0,0,0,0,0,0,0,0,0,0,0,0,0,0,0,0,0,0,0,0,0,0,0,0,0,0,0,0,0,0,0,0,0,0,0,0,0,0,0],"sum_hessian":[2.0549485E3,2.0012695E3,5.3678864E1,9.85064E2,1.0162055E3,3.1149614E1,2.252925E1,6.612914E2,3.237726E2,2.0662428E2,8.0958124E2,1.618168E1,1.4967932E1,1.9930428E1,2.598822E0,4.903105E2,1.7098093E2,3.043392E2,1.9433407E1,1.8425652E1,1.8819862E2,5.672447E2,2.4233658E2,1.3397987E1,2.7836943E0,2.3553927E0,1.2612539E1,1.593927E0,1.004895E0,4.5730206E1,4.445803E2,5.1203457E1,1.19777466E2,2.1784174E2,8.649749E1,1.5417043E1,4.0163636E0,1.1668582E1,6.7570696E0,1.1391274E2,7.428588E1,4.7012045E2,9.7124245E1,1.6135988E2,8.0976685E1,3.2929523E0,1.0105035E1,1.1907952E0,1.1645975E0,1.4350803E0,1.1177459E1,1.2265133E1,3.3465073E1,1.8876423E1,4.2570386E2,3.440559E1,1.6797865E1,1.0942043E1,1.0883543E2,4.3605423E1,1.7423631E2,4.0180325E1,4.631716E1,4.0204077E0,1.1396635E1,2.493374E0,1.5229894E0,9.368896E0,2.2996867E0,4.9588575E0,1.7982122E0,4.853656E1,6.537618E1,1.1079547E1,6.3206337E1,7.7686963E0,4.6235175E2,7.0452213E0,9.0079025E1,5.8865726E1,1.0249416E2,5.0507435E1,3.0469252E1,1.0568999E0,2.2360525E0,5.9392796E0,4.1657553E0,9.702451E0,1.475008E0],"tree_param":{"num_deleted":"0","num_feature":"11","num_nodes":"89","size_leaf_vector":"1"}},{"base_weights":[2.1994445E-3,9.2844844E-2,-9.5386356E-2,5.8529373E-2,7.0696384E-1,-1.07770264E-1,1.4402504E0,-7.068793E-2,1.1787144E-1,7.412405E-1,-1.06360264E-1,-2.3297259E-1,-2.2803955E-3,1.384617E-1,4.734352E-1,-3.0109918E-2,-5.221637E-1,1.2908639E-1,-6.304847E-1,2.347169E-1,7.998245E-1,-5.402483E-2,-3.4888107E-1,2.8800584E-2,-7.7856374E-1,-9.879239E-2,8.247272E-1,2.3988059E-1,-9.6251667E-1,7.142196E-1,1.1527385E-1,3.6538488E-1,-1.508705E0,-3.9122102E-1,2.4668662E-1,8.5689443E-1,5.611082E-1,-1.2830076E-1,1.0978113E0,-8.9666754E-1,-2.3947956E-1,4.7414858E-2,-8.974292E-1,-1.0100951E0,2.893832E-1,-5.6126468E-2,5.490347E-2,-2.6316172E-1,3.1369495E-1,-7.245062E-2,3.192654E-1,2.3338988E-1,-3.4590334E-1,3.3676897E-3,3.070047E-1,3.1177828E-2,2.3704757E-1,-1.5005332E-1,2.6712447E-1,-1.0178512E-1,-5.247523E-1,1.864792E-1,-3.3528507E-1,2.7492827E-1,1.1285987E-1,-5.570923E-2,2.2380632E-1,-7.994682E-3,-2.3845074E-1,5.685072E-1,2.3409503E-2,-3.6133978E-1,-1.9020228E-1,6.4085996E-1,-8.218649E-2,6.7421105E-3,1.9601299E-1,-1.2602869E-2,-3.2741758E-1,1.03176504E-1,-3.5966808E-1,-2.690561E-1,2.800031E-1],"categories":[],"categories_nodes":[],"categories_segments":[],"categories_sizes":[],"default_left":[0,0,0,0,0,0,0,0,0,0,0,0,0,0,0,0,0,0,0,0,0,0,0,0,0,0,0,0,0,0,0,0,0,0,0,0,0,0,0,0,0,0,0,0,0,0,0,0,0,0,0,0,0,0,0,0,0,0,0,0,0,0,0,0,0,0,0,0,0,0,0,0,0,0,0,0,0,0,0,0,0,0,0],"id":10,"left_children":[1,3,5,7,9,11,13,15,17,19,-1,21,23,-1,-1,25,27,29,31,33,35,37,39,41,43,45,47,49,51,53,55,57,59,61,-1,63,65,67,69,71,73,75,77,79,81,-1,-1,-1,-1,-1,-1,-1,-1,-1,-1,-1,-1,-1,-1,-1,-1,-1,-1,-1,-1,-1,-1,-1,-1,-1,-1,-1,-1,-1,-1,-1,-1,-1,-1,-1,-1,-1,-1],"loss_changes":[1.7777775E1,2.1915844E1,1.8560837E1,7.58336E0,2.2657185E0,1.2692334E1,3.2575226E-1,5.691345E0,5.766239E0,1.404295E0,0E0,9.095928E0,1.26311455E1,0E0,0E0,1.6925598E1,8.831144E0,5.318019E0,9.446676E0,2.8877983E0,1.6866493E-1,1.5021189E1,1.5757172E1,8.722243E0,5.275527E0,6.6640587E0,8.97982E0,4.2992573E0,6.348507E0,3.2953491E0,4.9262133E0,2.9771984E0,9.812193E-1,3.6786764E0,0E0,7.020035E-1,1.8088083E0,1.1110122E1,8.503086E0,2.7937737E0,1.8891512E1,7.4583154E0,1.6080732E0,4.7032795E0,4.173827E0,0E0,0E0,0E0,0E0,0E0,0E0,0E0,0E0,0E0,0E0,0E0,0E0,0E0,0E0,0E0,0E0,0E0,0E0,0E0,0E0,0E0,0E0,0E0,0E0,0E0,0E0,0E0,0E0,0E0,0E0,0E0,0E0,0E0,0E0,0E0,0E0,0E0,0E0],"parents":[2147483647,0,0,1,1,2,2,3,3,4,4,5,5,6,6,7,7,8,8,9,9,11,11,12,12,15,15,16,16,17,17,18,18,19,19,20,20,21,21,22,22,23,23,24,24,25,25,26,26,27,27,28,28,29,29,30,30,31,31,32,32,33,33,35,35,36,36,37,37,38,38,39,39,40,40,41,41,42,42,43,43,44,44],"right_children":[2,4,6,8,10,12,14,16,18,20,-1,22,24,-1,-1,26,28,30,32,34,36,38,40,42,44,46,48,50,52,54,56,58,60,62,-1,64,66,68,70,72,74,76,78,80,82,-1,-1,-1,-1,-1,-1,-1,-1,-1,-1,-1,-1,-1,-1,-1,-1,-1,-1,-1,-1,-1,-1,-1,-1,-1,-1,-1,-1,-1,-1,-1,-1,-1,-1,-1,-1,-1,-1],"split_conditions":[9.7024256E-1,1.4377605E0,1.991193E0,-3.7395772E-1,3.3448324E0,1.0281024E-1,-7.8147954E-1,1.3809966E0,1.6877007E0,-1.4747136E0,-1.06360264E-1,-4.4628575E-1,1.7244636E0,1.384617E-1,4.734352E-1,1.1533675E0,-6.83033E-1,-2.1162136E0,2.2304736E-1,4.5333126E-1,1.3786857E0,1.7244636E0,1.9155744E-3,3.1541252E0,1.4430772E0,1.7427397E0,-1.1367865E0,1.9811096E0,-1.5182008E0,1.2757243E-1,1.7858312E0,3.88871E-1,-8.3321345E-1,-6.7425627E-1,2.4668662E-1,1.4120369E0,1.6284677E0,1.1206602E0,-7.514119E-1,9.1241914E-1,1.57447E-2,1.867295E0,-1.0608425E0,-1.8368506E0,-1.6500805E-1,-5.6126468E-2,5.490347E-2,-2.6316172E-1,3.1369495E-1,-7.245062E-2,3.192654E-1,2.3338988E-1,-3.4590334E-1,3.3676897E-3,3.070047E-1,3.1177828E-2,2.3704757E-1,-1.5005332E-1,2.6712447E-1,-1.0178512E-1,-5.247523E-1,1.864792E-1,-3.3528507E-1,2.7492827E-1,1.1285987E-1,-5.570923E-2,2.2380632E-1,-7.994682E-3,-2.3845074E-1,5.685072E-1,2.3409503E-2,-3.6133978E-1,-1.9020228E-1,6.4085996E-1,-8.218649E-2,6.7421105E-3,1.9601299E-1,-1.2602869E-2,-3.2741758E-1,1.03176504E-1,-3.5966808E-1,-2.690561E-1,2.800031E-1],"split_indices":[7,2,4,2,2,2,0,0,8,0,0,8,3,0,0,0,8,0,4,8,3,3,8,2,0,10,2,0,2,4,4,2,0,8,0,0,2,4,4,1,8,0,0,0,4,0,0,0,0,0,0,0,0,0,0,0,0,0,0,0,0,0,0,0,0,0,0,0,0,0,0,0,0,0,0,0,0,0,0,0,0,0,0],"split_type":[0,0,0,0,0,0,0,0,0,0,0,0,0,0,0,0,0,0,0,0,0,0,0,0,0,0,0,0,0,0,0,0,0,0,0,0,0,0,0,0,0,0,0,0,0,0,0,0,0,0,0,0,0,0,0,0,0,0,0,0,0,0,0,0,0,0,0,0,0,0,0,0,0,0,0,0,0,0,0,0,0,0,0],"sum_hessian":[2.0077625E3,1.0409211E3,9.668413E2,9.868725E2,5.404872E1,9.600291E2,6.8121896E0,3.1052133E2,6.7635114E2,5.2650303E1,1.3984183E0,4.384451E2,5.21584E2,1.3779426E0,5.434247E0,2.8589243E2,2.4628916E1,6.671802E2,9.170925E0,5.9772077E0,4.6673096E1,1.7292982E2,2.6551526E2,5.024305E2,1.9153507E1,2.6544916E2,2.0443262E1,9.186555E0,1.5442361E1,1.421672E1,6.529635E2,4.571247E0,4.599678E0,3.0559206E0,2.921287E0,3.5577892E1,1.1095203E1,1.6328879E2,9.641033E0,4.3002167E1,2.225131E2,4.9346228E2,8.968214E0,1.5785397E1,3.3681107E0,2.0237607E2,6.30731E1,2.0074813E0,1.8435781E1,6.2460985E0,2.9404564E0,1.2191815E0,1.422318E1,4.6586804E0,9.55804E0,6.433008E2,9.662703E0,1.7437845E0,2.8274627E0,1.1957201E0,3.4039578E0,1.3365843E0,1.7193363E0,3.0850636E1,4.7272553E0,2.2011597E0,8.894044E0,1.4258365E2,2.0705143E1,4.9292917E0,4.711741E0,1.8148813E1,2.4853355E1,2.3108504E0,2.2020226E2,4.749506E2,1.85117E1,1.8825086E0,7.0857053E0,1.8311547E0,1.3954242E1,1.0469017E0,2.321209E0],"tree_param":{"num_deleted":"0","num_feature":"11","num_nodes":"83","size_leaf_vector":"1"}},{"base_weights":[1.7120888E-3,-1.25956265E-2,6.00117E-1,4.8583284E-2,-1.3525762E-1,4.1222414E-1,8.7290096E-1,9.994453E-1,3.849644E-2,-3.062241E-1,-3.0177575E-2,2.3488294E-1,6.673121E-1,2.9016364E-1,1.8752722E-1,3.7500978E-1,5.361911E-1,-1.2126001E-2,1.8667692E-1,-1.6009727E-1,-4.8361477E-1,-9.5180735E-2,2.7532768E-1,-1.8734722E-1,3.6962125E-1,7.814851E-2,8.391143E-1,1.370206E-1,-4.9211908E-2,-2.7283815E-1,3.1327593E-1,9.23614E-2,-1.10461734E-1,5.073709E-1,8.8664E-2,-6.2867533E-3,-4.9772528E-1,1.2463565E-2,-5.7579535E-1,-5.687424E-2,-1.0462658E0,1.007009E-1,1.3115021E0,1.6102442E-1,-5.451462E-1,2.282759E-1,1.9789511E-1,1.9800365E-1,-2.0680052E-1,2.7815697E-1,8.107151E-2,1.1592871E-2,1.1054556E-1,-5.3594455E-2,9.153018E-2,1.7542082E-1,-1.4706418E-1,-2.2863338E-2,1.0361688E-1,-1.9902524E-1,4.371455E-2,3.926503E-2,-2.4237557E-1,-2.2129251E-1,3.4037238E-1,-1.20782025E-1,-2.8927973E-1,-5.627662E-3,-1.9022536E-1,-1.4383525E-1,-4.4570175E-1,1.4093877E-1,-7.3973246E-2,6.4183295E-1,2.4061126E-1,3.5084713E-2,-3.054099E-1,-1.1578498E-1,1.5641735E-1],"categories":[],"categories_nodes":[],"categories_segments":[],"categories_sizes":[],"default_left":[0,0,0,0,0,0,0,0,0,0,0,0,0,0,0,0,0,0,0,0,0,0,0,0,0,0,0,0,0,0,0,0,0,0,0,0,0,0,0,0,0,0,0,0,0,0,0,0,0,0,0,0,0,0,0,0,0,0,0,0,0,0,0,0,0,0,0,0,0,0,0,0,0,0,0,0,0,0,0],"id":11,"left_children":[1,3,5,7,9,11,13,15,17,19,21,23,25,-1,27,-1,29,31,33,35,37,39,41,43,45,47,49,-1,-1,-1,-1,51,53,55,57,59,61,63,65,67,69,71,73,-1,75,-1,77,-1,-1,-1,-1,-1,-1,-1,-1,-1,-1,-1,-1,-1,-1,-1,-1,-1,-1,-1,-1,-1,-1,-1,-1,-1,-1,-1,-1,-1,-1,-1,-1],"loss_changes":[1.6931786E1,1.4501422E1,2.0070667E0,1.2329271E1,1.1543134E1,1.1659842E0,9.7824097E-1,8.9636326E-1,9.581324E0,6.264847E0,7.957242E0,1.1383015E0,1.0931945E0,0E0,3.9771432E-1,0E0,5.7154317E0,9.799704E0,1.0177693E1,7.0414324E0,5.038206E0,1.1965023E1,1.2592594E1,1.6422939E0,8.2926404E-1,2.1016164E0,1.8838787E-1,0E0,0E0,0E0,0E0,6.845674E0,1.3975449E1,6.145998E0,1.0621374E1,9.50676E0,8.381889E0,1.6171734E1,5.85524E0,6.9914703E0,2.4560242E0,7.9686594E0,2.5271358E0,0E0,1.3660498E0,0E0,2.3705714E0,0E0,0E0,0E0,0E0,0E0,0E0,0E0,0E0,0E0,0E0,0E0,0E0,0E0,0E0,0E0,0E0,0E0,0E0,0E0,0E0,0E0,0E0,0E0,0E0,0E0,0E0,0E0,0E0,0E0,0E0,0E0,0E0],"parents":[2147483647,0,0,1,1,2,2,3,3,4,4,5,5,6,6,7,7,8,8,9,9,10,10,11,11,12,12,14,14,16,16,17,17,18,18,19,19,20,20,21,21,22,22,23,23,24,24,25,25,26,26,31,31,32,32,33,33,34,34,35,35,36,36,37,37,38,38,39,39,40,40,41,41,42,42,44,44,46,46],"right_children":[2,4,6,8,10,12,14,16,18,20,22,24,26,-1,28,-1,30,32,34,36,38,40,42,44,46,48,50,-1,-1,-1,-1,52,54,56,58,60,62,64,66,68,70,72,74,-1,76,-1,78,-1,-1,-1,-1,-1,-1,-1,-1,-1,-1,-1,-1,-1,-1,-1,-1,-1,-1,-1,-1,-1,-1,-1,-1,-1,-1,-1,-1,-1,-1,-1,-1],"split_conditions":[2.5270567E0,8.077366E-1,3.88871E-1,-2.3852298E0,-7.514119E-1,4.4951794E-1,2.5820036E0,6.8712986E-1,6.7493176E-1,9.1241914E-1,1.7427397E0,-6.080692E-1,-6.600185E-1,2.9016364E-1,-4.685848E-2,3.7500978E-1,-1.8325053E-1,9.1241914E-1,-3.5351825E-1,1.7427397E0,-1.1436167E0,1.639666E0,1.4682133E0,-1.5882165E0,-3.448338E-1,9.796151E-1,1.3541968E0,1.370206E-1,-4.9211908E-2,-2.7283815E-1,3.1327593E-1,1.3786857E0,1.2841837E0,2.5820036E0,1.7279038E0,-1.0386946E0,-7.0835835E-1,-1.3195119E0,6.0513216E-1,1.4587688E0,-8.789694E-2,6.154867E-1,-5.646649E-1,1.6102442E-1,6.4609164E-1,2.282759E-1,3.578347E-1,1.9800365E-1,-2.0680052E-1,2.7815697E-1,8.107151E-2,1.1592871E-2,1.1054556E-1,-5.3594455E-2,9.153018E-2,1.7542082E-1,-1.4706418E-1,-2.2863338E-2,1.0361688E-1,-1.9902524E-1,4.371455E-2,3.926503E-2,-2.4237557E-1,-2.2129251E-1,3.4037238E-1,-1.20782025E-1,-2.8927973E-1,-5.627662E-3,-1.9022536E-1,-1.4383525E-1,-4.4570175E-1,1.4093877E-1,-7.3973246E-2,6.4183295E-1,2.4061126E-1,3.5084713E-2,-3.054099E-1,-1.1578498E-1,1.5641735E-1],"split_indices":[5,5,2,0,4,4,2,3,2,1,10,8,2,0,0,0,2,1,4,10,0,0,4,8,8,8,4,0,0,0,0,3,8,2,9,8,8,0,8,8,2,4,2,0,6,0,8,0,0,0,0,0,0,0,0,0,0,0,0,0,0,0,0,0,0,0,0,0,0,0,0,0,0,0,0,0,0,0,0],"split_type":[0,0,0,0,0,0,0,0,0,0,0,0,0,0,0,0,0,0,0,0,0,0,0,0,0,0,0,0,0,0,0,0,0,0,0,0,0,0,0,0,0,0,0,0,0,0,0,0,0,0,0,0,0,0,0,0,0,0,0,0,0,0,0,0,0,0,0,0,0,0,0,0,0,0,0,0,0,0,0],"sum_hessian":[1.975712E3,1.9305325E3,4.5179604E1,1.2884893E3,6.4204315E2,2.8239489E1,1.6940115E1,1.2495392E1,1.2759939E3,2.4367189E2,3.9837125E2,1.7791409E1,1.044808E1,1.4529552E1,2.410563E0,7.0068283E0,5.488564E0,9.517639E2,3.2422998E2,1.3465303E2,1.0901886E2,3.2904742E2,6.932384E1,4.2095294E0,1.3581879E1,2.6873143E0,7.760766E0,1.1957726E0,1.2147905E0,1.2218435E0,4.2667203E0,4.614778E2,4.9028607E2,7.491964E1,2.4931035E2,9.320911E1,4.1443916E1,1.7218845E1,9.180002E1,3.173264E2,1.1721034E1,6.026461E1,9.059227E0,1.2267525E0,2.9827769E0,3.0960817E0,1.0485797E1,1.6081413E0,1.0791731E0,6.174884E0,1.5858821E0,3.872753E2,7.4202515E1,4.2166794E2,6.861815E1,6.991167E1,5.0079775E0,1.5224086E2,9.706948E1,1.6878008E1,7.63311E1,1.3884647E1,2.755927E1,1.0525454E1,6.6933923E0,6.490177E1,2.6898249E1,2.9863864E2,1.8687737E1,6.0316315E0,5.6894026E0,2.9043621E1,3.1220987E1,2.2322152E0,6.8270116E0,1.5563713E0,1.4264057E0,3.6696897E0,6.8161073E0],"tree_param":{"num_deleted":"0","num_feature":"11","num_nodes":"79","size_leaf_vector":"1"}},{"base_weights":[1.5523157E-3,-9.563123E-3,5.2783686E-1,5.7495818E-2,-8.174902E-2,2.8165945E-1,7.4915475E-1,3.3825226E-2,5.817033E-1,-9.171164E-2,1.1998978E0,1.2658653E-1,2.531392E-1,1.7448543E-1,8.3661705E-1,-7.297543E-2,7.7492245E-2,6.684032E-1,-1.657587E-1,-3.5619613E-2,-2.0347011E-1,1.1535653E-1,3.9800212E-1,3.7142298E-1,-1.8606576E-1,2.1478887E-1,-1.9733277E-1,7.622172E-2,8.7784207E-1,-1.5741338E-1,2.6972988E-1,1.1061792E-1,-1.6593768E-1,2.739531E-1,7.211075E-1,2.7278128E-1,-2.3628864E-1,-4.5887804E-1,2.0007733E-2,4.678192E-1,-2.2379333E-1,-9.760145E-2,5.517811E-1,3.8123372E-1,-5.864132E-1,9.1406035E-1,5.840961E-2,-6.667229E-2,1.7413782E-1,1.6808456E-1,-4.39336E-2,1.9422527E-2,2.7129567E-1,-2.947557E-1,-1.4458042E-2,-8.5620336E-2,2.3512577E-1,2.2803237E-1,3.8842864E-2,2.0157693E-1,-9.497513E-2,-1.07946E-2,-1.9997248E-1,8.678217E-2,-1.1655732E-2,-1.1948589E-2,-1.22854084E-1,2.1851642E-1,1.1330223E-2,-4.4758737E-2,1.8403314E-1,3.504853E-2,-3.307925E-1,2.8869084E-1,1.03965394E-1],"categories":[],"categories_nodes":[],"categories_segments":[],"categories_sizes":[],"default_left":[0,0,0,0,0,0,0,0,0,0,0,0,0,0,0,0,0,0,0,0,0,0,0,0,0,0,0,0,0,0,0,0,0,0,0,0,0,0,0,0,0,0,0,0,0,0,0,0,0,0,0,0,0,0,0,0,0,0,0,0,0,0,0,0,0,0,0,0,0,0,0,0,0,0,0],"id":12,"left_children":[1,3,5,7,9,11,13,15,17,19,21,23,-1,25,27,29,31,33,35,37,39,-1,-1,41,43,-1,-1,-1,45,47,49,51,53,55,57,59,-1,61,63,-1,65,-1,67,69,71,73,-1,-1,-1,-1,-1,-1,-1,-1,-1,-1,-1,-1,-1,-1,-1,-1,-1,-1,-1,-1,-1,-1,-1,-1,-1,-1,-1,-1,-1],"loss_changes":[1.1342655E1,9.197141E0,1.9740391E0,1.2202998E1,1.1792591E1,1.6879396E0,8.852072E-1,4.40603E0,2.864746E0,5.6899114E0,2.267189E-1,1.394432E0,0E0,2.2616248E0,1.9825745E-1,7.9811172E0,5.4227386E0,5.982151E-1,1.6379259E0,1.428489E1,1.1222345E1,0E0,0E0,1.4416524E0,2.1018004E0,0E0,0E0,0E0,2.1731472E-1,1.06879635E1,6.684332E0,2.1443726E1,7.709532E0,1.9700841E0,6.6656494E-1,1.1073208E0,0E0,6.1658792E0,8.519809E0,0E0,1.0264594E1,0E0,7.304218E-1,5.876022E-1,2.031973E0,7.447147E-2,0E0,0E0,0E0,0E0,0E0,0E0,0E0,0E0,0E0,0E0,0E0,0E0,0E0,0E0,0E0,0E0,0E0,0E0,0E0,0E0,0E0,0E0,0E0,0E0,0E0,0E0,0E0,0E0,0E0],"parents":[2147483647,0,0,1,1,2,2,3,3,4,4,5,5,6,6,7,7,8,8,9,9,10,10,11,11,13,13,14,14,15,15,16,16,17,17,18,18,19,19,20,20,23,23,24,24,28,28,29,29,30,30,31,31,32,32,33,33,34,34,35,35,37,37,38,38,40,40,42,42,43,43,44,44,45,45],"right_children":[2,4,6,8,10,12,14,16,18,20,22,24,-1,26,28,30,32,34,36,38,40,-1,-1,42,44,-1,-1,-1,46,48,50,52,54,56,58,60,-1,62,64,-1,66,-1,68,70,72,74,-1,-1,-1,-1,-1,-1,-1,-1,-1,-1,-1,-1,-1,-1,-1,-1,-1,-1,-1,-1,-1,-1,-1,-1,-1,-1,-1,-1,-1],"split_conditions":[2.5270567E0,9.7024256E-1,-4.0988818E-1,1.4377605E0,1.991193E0,1.1661954E0,-6.600185E-1,6.4609164E-1,2.8680644E0,6.8712986E-1,-7.8147954E-1,9.1241914E-1,2.531392E-1,-9.4607925E-1,-1.416453E0,1.0877326E0,1.1660216E0,-1.4747136E0,9.1241914E-1,-7.5537205E-1,-1.8042616E0,1.1535653E-1,3.9800212E-1,-1.8325053E-1,-3.9864886E-1,2.1478887E-1,-1.9733277E-1,7.622172E-2,1.543459E0,1.4343708E0,5.811534E-1,1.0731387E0,-9.4607925E-1,9.1241914E-1,1.5879321E0,3.3448324E0,-2.3628864E-1,-6.693865E-2,-1.1765276E0,4.678192E-1,9.1241914E-1,-9.760145E-2,1.9111736E-1,-5.952376E-1,-3.5020387E-1,1.3541968E0,5.840961E-2,-6.667229E-2,1.7413782E-1,1.6808456E-1,-4.39336E-2,1.9422527E-2,2.7129567E-1,-2.947557E-1,-1.4458042E-2,-8.5620336E-2,2.3512577E-1,2.2803237E-1,3.8842864E-2,2.0157693E-1,-9.497513E-2,-1.07946E-2,-1.9997248E-1,8.678217E-2,-1.1655732E-2,-1.1948589E-2,-1.22854084E-1,2.1851642E-1,1.1330223E-2,-4.4758737E-2,1.8403314E-1,3.504853E-2,-3.307925E-1,2.8869084E-1,1.03965394E-1],"split_indices":[5,7,4,2,4,8,2,6,2,3,0,1,0,2,8,8,4,0,1,2,2,0,0,2,0,0,0,0,8,4,4,4,2,1,0,2,0,4,8,0,1,0,0,0,3,4,0,0,0,0,0,0,0,0,0,0,0,0,0,0,0,0,0,0,0,0,0,0,0,0,0,0,0,0,0],"split_type":[0,0,0,0,0,0,0,0,0,0,0,0,0,0,0,0,0,0,0,0,0,0,0,0,0,0,0,0,0,0,0,0,0,0,0,0,0,0,0,0,0,0,0,0,0,0,0,0,0,0,0,0,0,0,0,0,0,0,0,0,0,0,0,0,0,0,0,0,0,0,0,0,0,0,0],"sum_hessian":[1.937091E3,1.8979862E3,3.910475E1,9.840402E2,9.139459E2,1.9588554E1,1.9516197E1,9.425442E2,4.1496056E1,9.078176E2,6.1282964E0,1.6313465E1,3.2750897E0,2.9735467E0,1.654265E1,2.7333966E2,6.692045E2,3.7277874E1,4.2181807E0,6.053225E2,3.0249512E2,1.3673148E0,4.7609816E0,9.043539E0,7.2699256E0,1.886142E0,1.0874048E0,1.5667142E0,1.4975937E1,2.197395E2,5.3600163E1,5.895278E2,7.967672E1,5.1243153E0,3.215356E1,2.8029242E0,1.4152564E0,6.947217E1,5.3585034E2,2.5844684E0,2.9991064E2,1.6942918E0,7.3492475E0,3.0275607E0,4.242365E0,1.39009285E1,1.0750086E0,2.026353E2,1.7104198E1,3.1359982E1,2.224018E1,5.583373E2,3.1190508E1,9.115343E0,7.056138E1,2.6532867E0,2.4710288E0,2.9897919E1,2.2556407E0,1.5876343E0,1.2152898E0,2.3268309E1,4.620386E1,9.5420044E1,4.404303E2,1.5127754E2,1.486331E2,5.1594744E0,2.1897728E0,1.0306891E0,1.9968716E0,2.1234055E0,2.1189594E0,1.2170672E1,1.7302557E0],"tree_param":{"num_deleted":"0","num_feature":"11","num_nodes":"75","size_leaf_vector":"1"}},{"base_weights":[2.3804528E-3,3.3540285E-1,-1.872806E-3,-1.0452166E-2,4.574605E-1,3.524158E-2,-1.027718E-1,2.6570883E-1,7.983655E-1,-8.954108E-3,1.430948E-1,-5.136371E-2,-3.871788E-1,1.2969781E-1,6.306228E-1,2.76091E-1,1.3660605E-1,1.7122439E-1,-1.14358336E-1,-4.0124404E-1,1.7034894E-1,-1.3918659E-1,3.2849327E-1,-3.107805E-1,-2.8936955E-1,3.3581316E-1,-1.2953459E-1,5.918711E-2,2.1448179E-1,1.10176094E-1,-4.6954174E-2,4.301037E-2,4.029287E-1,-8.997702E-2,2.9967052E-3,7.5324945E-2,-9.571809E-2,-1.636839E-2,-1.1371577E-1,1.581783E-1,-1.569529E-2,-2.206984E-1,-4.207977E-2,1.609011E-1,1.0369266E-3,-1.9802146E-1,6.208323E-2],"categories":[],"categories_nodes":[],"categories_segments":[],"categories_sizes":[],"default_left":[0,0,0,0,0,0,0,0,0,0,0,0,0,0,0,0,0,0,0,0,0,0,0,0,0,0,0,0,0,0,0,0,0,0,0,0,0,0,0,0,0,0,0,0,0,0,0],"id":13,"left_children":[1,-1,3,5,7,9,11,13,15,17,19,21,23,25,27,-1,29,31,33,-1,35,37,39,-1,41,43,45,-1,-1,-1,-1,-1,-1,-1,-1,-1,-1,-1,-1,-1,-1,-1,-1,-1,-1,-1,-1],"loss_changes":[9.088526E0,0E0,7.5263634E0,7.9116263E0,2.076974E0,5.982088E0,9.05836E0,1.1049572E0,8.5126877E-1,1.694021E1,1.49467745E1,1.7626955E1,5.7219925E0,1.0414687E0,8.669734E-2,0E0,2.6423296E-1,1.0555175E1,1.2987408E1,0E0,1.4267274E1,8.682416E0,7.5410414E0,0E0,5.4767537E0,7.1012306E-1,1.742227E0,0E0,0E0,0E0,0E0,0E0,0E0,0E0,0E0,0E0,0E0,0E0,0E0,0E0,0E0,0E0,0E0,0E0,0E0,0E0,0E0],"parents":[2147483647,0,0,2,2,3,3,4,4,5,5,6,6,7,7,8,8,9,9,10,10,11,11,12,12,13,13,14,14,16,16,17,17,18,18,20,20,21,21,22,22,24,24,25,25,26,26],"right_children":[2,-1,4,6,8,10,12,14,16,18,20,22,24,26,28,-1,30,32,34,-1,36,38,40,-1,42,44,46,-1,-1,-1,-1,-1,-1,-1,-1,-1,-1,-1,-1,-1,-1,-1,-1,-1,-1,-1,-1],"split_conditions":[-2.5404315E0,3.3540285E-1,2.5270567E0,8.077366E-1,3.88871E-1,1.7279038E0,9.774723E-1,8.1635505E-1,2.5820036E0,-1.89607E-2,-1.6500805E-1,5.3256094E-1,-7.5537205E-1,-1.3997945E-1,-6.1904097E-1,2.76091E-1,-4.685848E-2,1.6877007E0,6.6116506E-1,-4.0124404E-1,1.0983819E0,-1.581815E-2,2.2999614E-1,-3.107805E-1,1.1533675E0,1.7427397E0,3.5666576E-1,5.918711E-2,2.1448179E-1,1.10176094E-1,-4.6954174E-2,4.301037E-2,4.029287E-1,-8.997702E-2,2.9967052E-3,7.5324945E-2,-9.571809E-2,-1.636839E-2,-1.1371577E-1,1.581783E-1,-1.569529E-2,-2.206984E-1,-4.207977E-2,1.609011E-1,1.0369266E-3,-1.9802146E-1,6.208323E-2],"split_indices":[0,0,5,5,2,9,0,4,2,4,4,0,2,0,8,0,0,8,4,0,4,0,8,0,0,10,0,0,0,0,0,0,0,0,0,0,0,0,0,0,0,0,0,0,0,0,0],"split_type":[0,0,0,0,0,0,0,0,0,0,0,0,0,0,0,0,0,0,0,0,0,0,0,0,0,0,0,0,0,0,0,0,0,0,0,0,0,0,0,0,0,0,0,0,0,0,0],"sum_hessian":[1.9139249E3,6.2744646E0,1.9076504E3,1.8736322E3,3.4018185E1,1.2537198E3,6.1991235E2,2.2910786E1,1.1107398E1,8.899546E2,3.637653E2,5.2601324E2,9.38991E1,1.7677452E1,5.233334E0,9.049262E0,2.058136E0,3.282382E2,5.617164E2,5.7061415E0,3.5805914E2,4.277509E2,9.826236E1,1.1045349E1,8.285375E1,9.683055E0,7.9943976E0,1.3964349E0,3.8368988E0,1.0102707E0,1.0478653E0,3.2171307E2,6.5250897E0,2.248131E2,3.369033E2,3.077748E2,5.0284344E1,3.171035E2,1.10647415E2,6.4310394E1,3.395196E1,1.9763739E1,6.3090015E1,5.6565185E0,4.0265365E0,2.729307E0,5.265091E0],"tree_param":{"num_deleted":"0","num_feature":"11","num_nodes":"47","size_leaf_vector":"1"}},{"base_weights":[1.6987226E-3,3.0685702E-1,-1.6083521E-3,5.6015592E-2,-5.916665E-2,4.6125304E-2,5.484941E-1,-3.3187695E-2,-3.1745198E-1,4.0395856E-2,8.823759E-1,3.100287E-1,7.289816E-1,-3.2198787E-1,-8.344563E-3,-5.961007E-1,1.4854518E-1,4.983228E-2,-4.415214E-1,6.024684E-3,3.195936E-1,-2.4498325E-2,5.6793463E-1,2.730604E-1,3.6484733E-1,-5.4798584E-2,-8.896419E-1,4.1883117E-1,-4.5361802E-2,-7.2442675E-1,3.5200325E-1,-1.19820945E-1,7.1283036E-1,-9.722677E-5,5.793865E-2,-2.677905E-1,1.6592446E-1,-1.3689007E-1,1.0782122E-1,2.4060704E-1,-2.4905566E-2,-1.1869188E-1,1.9868515E-1,-1.200929E-1,1.5036473E-1,-1.6261083E-1,-3.804925E-1,-1.4284231E-2,3.0829823E-1,-2.7094445E-1,-9.356216E-3,-1.5247701E-1,-3.306585E-1,-1.2353148E-1,5.5394566E-1,1.2447347E-1,-1.3720807E-1,4.891014E-2,3.5703707E-1],"categories":[],"categories_nodes":[],"categories_segments":[],"categories_sizes":[],"default_left":[0,0,0,0,0,0,0,0,0,0,0,0,0,0,0,0,0,0,0,0,0,0,0,0,0,0,0,0,0,0,0,0,0,0,0,0,0,0,0,0,0,0,0,0,0,0,0,0,0,0,0,0,0,0,0,0,0,0,0],"id":14,"left_children":[1,-1,3,5,7,9,11,13,15,17,19,21,23,25,27,29,31,33,35,-1,-1,37,39,-1,41,43,45,47,49,51,53,55,57,-1,-1,-1,-1,-1,-1,-1,-1,-1,-1,-1,-1,-1,-1,-1,-1,-1,-1,-1,-1,-1,-1,-1,-1,-1,-1],"loss_changes":[6.3716264E0,0E0,6.2426524E0,4.555946E0,6.3076277E0,4.3873367E0,5.670204E-1,6.1436615E0,1.1247399E1,4.196235E0,9.619417E-1,8.488753E-1,3.1114054E-1,1.0238897E1,1.2508647E1,6.8223705E0,5.0764565E0,6.477004E0,8.448641E0,0E0,0E0,1.0213069E0,9.055996E-1,0E0,1.3722212E0,9.265491E0,2.1612911E0,1.796385E1,8.820355E0,3.3490105E0,8.873751E0,4.375735E0,2.6312451E0,0E0,0E0,0E0,0E0,0E0,0E0,0E0,0E0,0E0,0E0,0E0,0E0,0E0,0E0,0E0,0E0,0E0,0E0,0E0,0E0,0E0,0E0,0E0,0E0,0E0,0E0],"parents":[2147483647,0,0,2,2,3,3,4,4,5,5,6,6,7,7,8,8,9,9,10,10,11,11,12,12,13,13,14,14,15,15,16,16,17,17,18,18,21,21,22,22,24,24,25,25,26,26,27,27,28,28,29,29,30,30,31,31,32,32],"right_children":[2,-1,4,6,8,10,12,14,16,18,20,22,24,26,28,30,32,34,36,-1,-1,38,40,-1,42,44,46,48,50,52,54,56,58,-1,-1,-1,-1,-1,-1,-1,-1,-1,-1,-1,-1,-1,-1,-1,-1,-1,-1,-1,-1,-1,-1,-1,-1,-1,-1],"split_conditions":[-2.5404315E0,3.0685702E-1,9.1241914E-1,2.5270567E0,1.267182E0,1.991193E0,1.9816384E-1,-1.4747136E0,1.867295E0,2.0638838E0,-5.646649E-1,-7.514119E-1,-3.65117E-2,-1.6919959E0,-1.174657E0,1.2129834E0,7.7028537E-1,6.463755E-1,1.0877326E0,6.024684E-3,3.195936E-1,-1.9200552E-1,9.796151E-1,2.730604E-1,2.1181092E-1,-1.8368506E0,3.318628E-1,5.2207935E-1,-1.1229231E0,6.707515E-1,1.7279038E0,-6.83033E-1,1.7427397E0,-9.722677E-5,5.793865E-2,-2.677905E-1,1.6592446E-1,-1.3689007E-1,1.0782122E-1,2.4060704E-1,-2.4905566E-2,-1.1869188E-1,1.9868515E-1,-1.200929E-1,1.5036473E-1,-1.6261083E-1,-3.804925E-1,-1.4284231E-2,3.0829823E-1,-2.7094445E-1,-9.356216E-3,-1.5247701E-1,-3.306585E-1,-1.2353148E-1,5.5394566E-1,1.2447347E-1,-1.3720807E-1,4.891014E-2,3.5703707E-1],"split_indices":[0,0,1,5,0,4,2,0,0,0,2,4,0,0,0,4,2,0,8,0,0,8,8,0,0,0,8,8,0,4,9,8,10,0,0,0,0,0,0,0,0,0,0,0,0,0,0,0,0,0,0,0,0,0,0,0,0,0,0],"split_type":[0,0,0,0,0,0,0,0,0,0,0,0,0,0,0,0,0,0,0,0,0,0,0,0,0,0,0,0,0,0,0,0,0,0,0,0,0,0,0,0,0,0,0,0,0,0,0,0,0,0,0,0,0,0,0,0,0,0,0],"sum_hessian":[1.8852587E3,5.0906E0,1.8801681E3,9.3956165E2,9.4060645E2,9.2213635E2,1.742531E1,8.556696E2,8.49368E1,9.1690265E2,5.2337174E0,8.677746E0,8.747565E0,6.682868E1,7.8884094E2,5.2978474E1,3.195832E1,9.001729E2,1.6729702E1,1.1102386E0,4.123479E0,4.171695E0,4.5060506E0,4.839464E0,3.9081006E0,4.618594E1,2.0642742E1,6.2083878E1,7.267571E2,4.687047E1,6.1080074E0,2.2191847E1,9.766473E0,6.675249E2,2.3264801E2,1.1579988E1,5.149714E0,1.874608E0,2.297087E0,3.1435318E0,1.3625185E0,1.0059412E0,2.9021595E0,2.8657818E1,1.7528124E1,1.2030496E1,8.6122465E0,3.5674335E1,2.640954E1,1.0794505E1,7.159626E2,3.1303246E1,1.5567222E1,4.521637E0,1.5863703E0,8.498782E0,1.3693066E1,5.161961E0,4.6045113E0],"tree_param":{"num_deleted":"0","num_feature":"11","num_nodes":"59","size_leaf_vector":"1"}},{"base_weights":[1.6211068E-3,5.342577E-2,-5.4532364E-2,3.4431554E-2,5.2172583E-1,-6.1576728E-2,9.7702295E-1,-1.5386571E-2,1.2381433E-1,6.000051E-1,-6.318917E-2,1.3209749E-2,-1.3901535E-1,6.273401E-2,3.4071207E-1,1.7134085E-2,-1.2444301E0,9.6100074E-1,3.875452E-2,8.5136247E-1,4.7616175E-1,3.252057E-1,-2.0840763E-1,-6.2773705E-2,3.6173424E-1,-8.83488E-1,-1.1240181E-1,-9.258152E-2,1.04065925E-1,-5.024715E-1,-1.6192212E0,1.2975335E0,-1.0542462E-2,-7.2018516E-1,1.04247846E-1,2.8007174E-1,7.45494E-2,2.4633805E-1,7.882448E-1,2.0742397E-1,-8.3104305E-2,-1.7764325E-1,1.1578815E-1,-1.5169305E-1,8.282821E-1,2.070118E-1,-3.3766901E-1,-6.3844375E-2,-4.085658E-1,-2.8180993E-1,6.067589E-3,1.6914296E-1,5.0340365E-3,1.6883259E-1,-2.4396987E-1,-5.217344E-1,-1.0294876E-1,4.4422826E-1,3.1976514E-2,1.4327535E-1,-2.798618E-1,-5.102419E-2,-3.6995614E-1,5.630819E-2,-3.9448787E-2,1.3761815E-1,-1.8066327E-1,2.8802893E-1,5.2793577E-2,7.856297E-2,-8.231006E-2,9.785699E-2,-3.6314964E-2,2.348444E-1,-7.649141E-2,3.2214534E-1,5.477817E-2,-6.670051E-2,3.66444E-2,-5.139339E-2,-2.5895965E-1],"categories":[],"categories_nodes":[],"categories_segments":[],"categories_sizes":[],"default_left":[0,0,0,0,0,0,0,0,0,0,0,0,0,0,0,0,0,0,0,0,0,0,0,0,0,0,0,0,0,0,0,0,0,0,0,0,0,0,0,0,0,0,0,0,0,0,0,0,0,0,0,0,0,0,0,0,0,0,0,0,0,0,0,0,0,0,0,0,0,0,0,0,0,0,0,0,0,0,0,0,0],"id":15,"left_children":[1,3,5,7,9,11,13,15,17,19,21,23,25,-1,-1,27,29,31,33,35,37,39,-1,41,43,45,47,49,51,53,55,57,59,61,63,-1,-1,65,67,-1,-1,69,71,73,75,-1,-1,77,79,-1,-1,-1,-1,-1,-1,-1,-1,-1,-1,-1,-1,-1,-1,-1,-1,-1,-1,-1,-1,-1,-1,-1,-1,-1,-1,-1,-1,-1,-1,-1,-1],"loss_changes":[5.466683E0,8.676409E0,6.613054E0,4.1894693E0,1.7791443E0,5.194375E0,5.150409E-1,2.4192501E1,2.3937546E1,6.416578E-1,1.5487808E0,1.2125663E1,8.629861E0,0E0,0E0,5.638268E0,3.525175E0,1.0152489E1,1.5317922E1,2.5535297E-1,1.5847669E0,1.0782385E0,0E0,7.7343144E0,1.9756165E1,6.5133886E0,6.1076293E0,2.4989935E1,1.3222248E1,2.6710978E0,9.203129E-1,4.86977E0,4.4839034E0,6.700863E0,5.59528E0,0E0,0E0,3.1126525E0,8.899927E-1,0E0,0E0,9.817549E0,7.4058485E0,4.0467324E0,6.635502E0,0E0,0E0,1.0863946E1,6.3124943E0,0E0,0E0,0E0,0E0,0E0,0E0,0E0,0E0,0E0,0E0,0E0,0E0,0E0,0E0,0E0,0E0,0E0,0E0,0E0,0E0,0E0,0E0,0E0,0E0,0E0,0E0,0E0,0E0,0E0,0E0,0E0,0E0],"parents":[2147483647,0,0,1,1,2,2,3,3,4,4,5,5,6,6,7,7,8,8,9,9,10,10,11,11,12,12,15,15,16,16,17,17,18,18,19,19,20,20,21,21,23,23,24,24,25,25,26,26,27,27,28,28,29,29,30,30,31,31,32,32,33,33,34,34,37,37,38,38,41,41,42,42,43,43,44,44,47,47,48,48],"right_children":[2,4,6,8,10,12,14,16,18,20,22,24,26,-1,-1,28,30,32,34,36,38,40,-1,42,44,46,48,50,52,54,56,58,60,62,64,-1,-1,66,68,-1,-1,70,72,74,76,-1,-1,78,80,-1,-1,-1,-1,-1,-1,-1,-1,-1,-1,-1,-1,-1,-1,-1,-1,-1,-1,-1,-1,-1,-1,-1,-1,-1,-1,-1,-1,-1,-1,-1,-1],"split_conditions":[9.7024256E-1,1.4377605E0,1.991193E0,3.7735933E-1,2.8680644E0,-1.581815E-2,-7.8147954E-1,3.2562545E-1,4.4978675E-1,6.4609164E-1,9.1241914E-1,-2.2275366E-1,-1.2321401E0,6.273401E-2,3.4071207E-1,4.2123297E-1,-4.67918E-1,1.9816384E-1,5.3256094E-1,9.687346E-1,4.2503345E-1,3.3448324E0,-2.0840763E-1,4.4072822E-1,6.373236E-1,-1.8996152E0,1.2327886E0,-1.0417597E0,-1.0417597E0,-7.5537205E-1,1.0332854E0,8.077366E-1,3.4452757E-1,5.038944E-1,1.3499563E0,2.8007174E-1,7.45494E-2,2.3362473E-2,2.945851E-1,2.0742397E-1,-8.3104305E-2,-1.0417597E0,9.1241914E-1,-2.1240689E-1,1.1206602E0,2.070118E-1,-3.3766901E-1,-1.745014E-1,7.427874E-1,-2.8180993E-1,6.067589E-3,1.6914296E-1,5.0340365E-3,1.6883259E-1,-2.4396987E-1,-5.217344E-1,-1.0294876E-1,4.4422826E-1,3.1976514E-2,1.4327535E-1,-2.798618E-1,-5.102419E-2,-3.6995614E-1,5.630819E-2,-3.9448787E-2,1.3761815E-1,-1.8066327E-1,2.8802893E-1,5.2793577E-2,7.856297E-2,-8.231006E-2,9.785699E-2,-3.6314964E-2,2.348444E-1,-7.649141E-2,3.2214534E-1,5.477817E-2,-6.670051E-2,3.66444E-2,-5.139339E-2,-2.5895965E-1],"split_indices":[7,2,4,0,2,0,0,0,0,6,1,0,2,0,0,4,8,2,0,8,8,2,0,8,4,2,8,3,3,2,4,5,8,4,0,0,0,8,0,0,0,3,1,0,4,0,0,8,4,0,0,0,0,0,0,0,0,0,0,0,0,0,0,0,0,0,0,0,0,0,0,0,0,0,0,0,0,0,0,0,0],"split_type":[0,0,0,0,0,0,0,0,0,0,0,0,0,0,0,0,0,0,0,0,0,0,0,0,0,0,0,0,0,0,0,0,0,0,0,0,0,0,0,0,0,0,0,0,0,0,0,0,0,0,0,0,0,0,0,0,0,0,0,0,0,0,0,0,0,0,0,0,0,0,0,0,0,0,0,0,0,0,0,0,0],"sum_hessian":[1.8772219E3,9.7644574E2,9.0077625E2,9.3941656E2,3.7029144E1,8.9560065E2,5.175638E0,6.0374365E2,3.3567294E2,3.26357E1,4.393442E0,4.5602408E2,4.3957654E2,1.28329E0,3.8923483E0,5.891409E2,1.460269E1,3.0009703E1,3.0566324E2,8.833127E0,2.3802574E1,3.020664E0,1.372778E0,3.7507263E2,8.095145E1,1.4060442E1,4.255161E2,2.6041254E2,3.2872842E2,5.686343E0,8.916347E0,2.20398E1,7.969903E0,2.3487913E1,2.8217532E2,7.2904067E0,1.5427206E0,1.4738331E1,9.064243E0,1.7863094E0,1.2343546E0,2.2824612E2,1.4682649E2,3.8860764E1,4.2090687E1,1.6279571E0,1.2432485E1,3.6662228E2,5.889383E1,2.9751974E1,2.3066055E2,5.158184E1,2.7714658E2,1.1010704E0,4.585273E0,7.81884E0,1.0975068E0,1.889019E1,3.1496108E0,5.527022E0,2.4428809E0,1.1976625E1,1.1511288E1,2.085565E2,7.361883E1,1.2155296E1,2.5830343E0,6.634079E0,2.430164E0,4.0861366E1,1.8738477E2,7.75529E1,6.92736E1,3.2125487E0,3.5648212E1,3.0014156E1,1.2076528E1,1.9784024E2,1.6878204E2,3.960329E1,1.9290539E1],"tree_param":{"num_deleted":"0","num_feature":"11","num_nodes":"81","size_leaf_vector":"1"}},{"base_weights":[1.15534E-3,-2.9248443E-2,9.335107E-2,6.499165E-2,-8.106449E-2,1.0996503E-1,-6.64926E-1,-4.293302E-2,3.2017902E-1,-3.3964917E-1,-4.0583972E-2,2.3306462E-1,-3.776461E-3,1.8089557E-1,-3.0140802E-1,-3.6659583E-1,1.22939564E-1,4.94691E-1,-1.5494467E-1,-9.555759E-2,-5.940629E-1,5.030701E-1,-6.2922716E-2,-1.2304224E0,2.615384E-1,-3.9287686E-2,6.2686634E-1,-1.5096208E-1,1.8593943E-1,9.826341E-3,-6.743082E-1,-1.0748509E-1,4.0634218E-1,3.7725407E-1,1.5014956E0,4.9630564E-1,-4.935095E-1,-3.9907128E-1,1.2585689E-2,2.3847686E-1,-8.077537E-1,1.5129877E0,1.1213904E-1,-1.9253992E-1,2.4278513E-3,-5.138744E-1,3.363155E-2,2.9759255E-1,-3.0446833E-1,1.1799119E-2,-4.374347E-1,-4.1757107E-1,9.068373E-1,-2.3595431E-1,7.272825E-2,-2.6964524E-1,2.0877525E-1,-5.1615253E-2,3.4256172E-1,1.5229945E-1,-2.046745E-1,1.4465852E-1,-1.0965618E-1,1.781196E-1,5.099303E-1,2.1532457E-1,-1.7048839E-1,-2.797514E-1,5.0922934E-2,2.0657809E-1,-4.0583394E-2,2.2809915E-1,-2.0858715E-1,-1.5406305E-1,-3.5167164E-1,5.6740814E-1,-1.4629862E-1,-3.7134516E-1,1.7571828E-1,-4.068063E-2,-3.7492466E-1,1.0156942E-1,-1.3312107E-2,2.0892672E-2,1.192631E-1,4.8433255E-2,-2.6508924E-1,-2.9132439E-2,1.5833755E-1,-2.4109873E-1,1.9757834E-1,2.1596764E-1,-3.9203057E-1,3.8689432E-1,1.4435658E-1],"categories":[],"categories_nodes":[],"categories_segments":[],"categories_sizes":[],"default_left":[0,0,0,0,0,0,0,0,0,0,0,0,0,0,0,0,0,0,0,0,0,0,0,0,0,0,0,0,0,0,0,0,0,0,0,0,0,0,0,0,0,0,0,0,0,0,0,0,0,0,0,0,0,0,0,0,0,0,0,0,0,0,0,0,0,0,0,0,0,0,0,0,0,0,0,0,0,0,0,0,0,0,0,0,0,0,0,0,0,0,0,0,0,0,0],"id":16,"left_children":[1,3,5,7,9,11,13,15,17,19,21,23,25,27,-1,29,31,33,35,37,39,41,43,45,47,49,51,-1,-1,53,55,57,59,61,63,65,67,-1,69,71,73,75,77,79,81,-1,-1,83,85,87,89,91,93,-1,-1,-1,-1,-1,-1,-1,-1,-1,-1,-1,-1,-1,-1,-1,-1,-1,-1,-1,-1,-1,-1,-1,-1,-1,-1,-1,-1,-1,-1,-1,-1,-1,-1,-1,-1,-1,-1,-1,-1,-1,-1],"loss_changes":[5.2239676E0,6.849002E0,5.8954744E0,1.3722627E1,9.456684E0,6.3451853E0,3.0702038E0,1.8872946E1,1.23533325E1,7.539752E0,9.545824E0,9.390311E0,5.3208747E0,1.4311821E0,0E0,1.3799709E1,1.5234304E1,1.2265465E1,9.182726E0,8.511634E0,1.0814552E1,1.2081636E1,6.3820143E0,2.995893E0,4.463667E0,4.5781655E0,4.08234E0,0E0,0E0,1.0294242E1,2.0785788E1,1.0609733E1,1.18754635E1,7.8561687E0,9.708252E-1,3.7941453E0,8.069845E0,0E0,6.0394363E0,6.8472147E0,4.5172443E0,7.417097E0,1.5718016E1,1.5031934E1,7.909903E0,0E0,0E0,4.573883E0,3.7388413E0,1.1303463E1,1.0802467E1,4.341362E0,1.0583534E0,0E0,0E0,0E0,0E0,0E0,0E0,0E0,0E0,0E0,0E0,0E0,0E0,0E0,0E0,0E0,0E0,0E0,0E0,0E0,0E0,0E0,0E0,0E0,0E0,0E0,0E0,0E0,0E0,0E0,0E0,0E0,0E0,0E0,0E0,0E0,0E0,0E0,0E0,0E0,0E0,0E0,0E0],"parents":[2147483647,0,0,1,1,2,2,3,3,4,4,5,5,6,6,7,7,8,8,9,9,10,10,11,11,12,12,13,13,15,15,16,16,17,17,18,18,19,19,20,20,21,21,22,22,23,23,24,24,25,25,26,26,29,29,30,30,31,31,32,32,33,33,34,34,35,35,36,36,38,38,39,39,40,40,41,41,42,42,43,43,44,44,47,47,48,48,49,49,50,50,51,51,52,52],"right_children":[2,4,6,8,10,12,14,16,18,20,22,24,26,28,-1,30,32,34,36,38,40,42,44,46,48,50,52,-1,-1,54,56,58,60,62,64,66,68,-1,70,72,74,76,78,80,82,-1,-1,84,86,88,90,92,94,-1,-1,-1,-1,-1,-1,-1,-1,-1,-1,-1,-1,-1,-1,-1,-1,-1,-1,-1,-1,-1,-1,-1,-1,-1,-1,-1,-1,-1,-1,-1,-1,-1,-1,-1,-1,-1,-1,-1,-1,-1,-1],"split_conditions":[6.7493176E-1,-5.3004736E-1,3.1541252E0,-8.440986E-1,-1.9971876E-1,-4.4259573E-3,-1.0608425E0,-3.7395772E-1,1.0281024E-1,1.5222176E-2,-1.3807909E-1,-1.6703327E0,1.5604318E0,1.0329077E0,-3.0140802E-1,-1.3760822E0,3.1527868E-1,1.7244636E0,6.4609164E-1,-4.914156E-1,-7.5537205E-1,-9.47028E-1,-3.5020387E-1,5.3516006E-1,1.4341843E0,1.1661954E0,1.0563462E0,-1.5096208E-1,1.8593943E-1,-1.6533811E0,1.248894E0,1.6293002E0,1.1775954E0,1.1480312E0,-5.646649E-1,1.7427397E0,-6.3479745E-1,-3.9907128E-1,-4.5618236E-1,-3.9797372E-1,7.456651E-3,9.7024256E-1,-1.581815E-2,1.4844643E0,-1.0414329E0,-5.138744E-1,3.363155E-2,-7.20306E-1,2.945851E-1,7.0069134E-1,6.981094E-1,1.5880626E0,1.8293995E-2,-2.3595431E-1,7.272825E-2,-2.6964524E-1,2.0877525E-1,-5.1615253E-2,3.4256172E-1,1.5229945E-1,-2.046745E-1,1.4465852E-1,-1.0965618E-1,1.781196E-1,5.099303E-1,2.1532457E-1,-1.7048839E-1,-2.797514E-1,5.0922934E-2,2.0657809E-1,-4.0583394E-2,2.2809915E-1,-2.0858715E-1,-1.5406305E-1,-3.5167164E-1,5.6740814E-1,-1.4629862E-1,-3.7134516E-1,1.7571828E-1,-4.068063E-2,-3.7492466E-1,1.0156942E-1,-1.3312107E-2,2.0892672E-2,1.192631E-1,4.8433255E-2,-2.6508924E-1,-2.9132439E-2,1.5833755E-1,-2.4109873E-1,1.9757834E-1,2.1596764E-1,-3.9203057E-1,3.8689432E-1,1.4435658E-1],"split_indices":[2,8,2,8,8,3,0,2,2,0,8,8,8,3,0,8,0,3,6,8,2,0,3,4,8,8,2,0,0,8,4,4,4,4,2,10,8,0,8,8,2,7,0,0,2,0,0,8,0,8,0,8,4,0,0,0,0,0,0,0,0,0,0,0,0,0,0,0,0,0,0,0,0,0,0,0,0,0,0,0,0,0,0,0,0,0,0,0,0,0,0,0,0,0,0],"split_type":[0,0,0,0,0,0,0,0,0,0,0,0,0,0,0,0,0,0,0,0,0,0,0,0,0,0,0,0,0,0,0,0,0,0,0,0,0,0,0,0,0,0,0,0,0,0,0,0,0,0,0,0,0,0,0,0,0,0,0,0,0,0,0,0,0,0,0,0,0,0,0,0,0,0,0,0,0,0,0,0,0,0,0,0,0,0,0,0,0,0,0,0,0,0,0],"sum_hessian":[1.8616659E3,1.4004999E3,4.6116608E2,4.967624E2,9.037375E2,4.5211514E2,9.05092E0,3.4969852E2,1.4706387E2,1.2132671E2,7.8241077E2,2.1662173E2,2.3549341E2,2.727825E0,6.323095E0,1.1808067E2,2.3161783E2,1.075279E2,3.9535973E1,6.2621506E1,5.8705208E1,3.0031021E1,7.5237976E2,3.328563E0,2.1329317E2,2.2382748E2,1.1665927E1,1.008851E0,1.718974E0,5.3546146E1,6.453453E1,1.2809172E2,1.03526115E2,9.7526764E1,1.0001134E1,1.3363858E1,2.6172113E1,4.133084E0,5.8488422E1,1.1966746E1,4.673846E1,7.579692E0,2.2451328E1,2.5153519E2,5.0084457E2,2.2456193E0,1.0829436E0,2.0096602E2,1.23271475E1,1.9923387E2,2.4593615E1,2.3622022E0,9.303724E0,1.1566234E1,4.197991E1,5.574486E1,8.789669E0,1.2261725E2,5.4744678E0,9.5198944E1,8.327172E0,8.5761055E1,1.1765708E1,2.5089154E0,7.492218E0,1.1332449E1,2.0314093E0,1.5504202E1,1.06679125E1,9.840833E0,4.8647587E1,7.7957067E0,4.1710396E0,2.7195427E1,1.9543036E1,6.420115E0,1.1595767E0,5.4116926E0,1.7039637E1,2.3975122E2,1.1783957E1,6.0449757E1,4.403948E2,6.1775787E1,1.3919023E2,7.231193E0,5.095955E0,1.6518181E2,3.405206E1,1.8633993E1,5.9596205E0,1.1199554E0,1.2422467E0,3.8296547E0,5.4740696E0],"tree_param":{"num_deleted":"0","num_feature":"11","num_nodes":"95","size_leaf_vector":"1"}},{"base_weights":[-3.7967326E-4,-7.084055E-3,4.0409848E-1,2.8530385E-2,-8.017613E-2,2.577706E-1,7.171234E-1,8.015822E-1,2.2192655E-2,-1.789185E-1,2.3014406E-2,-6.898319E-2,3.6551592E-1,2.6257658E-1,1.6065508E-2,3.925757E-1,3.0343902E-1,-1.9279195E-1,3.915526E-2,-1.2799202E-1,-5.353989E-1,3.0425945E-1,-9.452941E-2,1.5492141E-1,-3.3658257E-1,6.2616867E-1,2.0449005E-1,2.6545465E-1,-2.2469334E-1,-3.502059E-1,-1.2036242E-1,4.1249558E-1,2.7240053E-2,-2.0895697E-1,2.2310063E-1,-1.1055293E0,-2.2622107E-1,-2.7461225E-1,4.9626175E-1,2.6044363E-1,-2.7586746E-1,9.4423875E-2,-6.940118E-1,6.3451104E-2,2.0744324E-1,-2.1493617E-1,3.740873E-1,-1.1222454E-2,-3.2506672E-1,2.0523874E-1,-2.543021E-1,3.9893985E-2,-2.702334E-3,-1.095443E-1,-3.0869378E-2,3.2093543E-1,-1.8747734E-2,-1.4601517E-1,-4.3296602E-1,4.2296448E-1,-1.374342E-1,3.904097E-1,-1.6875878E-1,1.1929917E-1,5.33276E-1,-2.3154834E-1,1.377786E-1,-2.2018002E-1,-5.2148607E-2,-2.248545E-2,-3.0902508E-1,1.6423005E-1,-1.5329461E-2],"categories":[],"categories_nodes":[],"categories_segments":[],"categories_sizes":[],"default_left":[0,0,0,0,0,0,0,0,0,0,0,0,0,0,0,0,0,0,0,0,0,0,0,0,0,0,0,0,0,0,0,0,0,0,0,0,0,0,0,0,0,0,0,0,0,0,0,0,0,0,0,0,0,0,0,0,0,0,0,0,0,0,0,0,0,0,0,0,0,0,0,0,0],"id":17,"left_children":[1,3,5,7,9,11,13,15,17,19,21,23,25,-1,-1,27,-1,29,31,33,35,37,39,-1,41,43,45,-1,-1,-1,47,49,51,53,55,57,59,61,63,65,67,-1,69,-1,-1,-1,71,-1,-1,-1,-1,-1,-1,-1,-1,-1,-1,-1,-1,-1,-1,-1,-1,-1,-1,-1,-1,-1,-1,-1,-1,-1,-1],"loss_changes":[5.003969E0,4.7273154E0,1.1932802E0,5.965327E0,6.0660834E0,8.0200994E-1,8.999553E-1,4.5292807E-1,4.428417E0,5.45282E0,9.67531E0,1.1626809E0,5.7504845E-1,0E0,0E0,3.4681911E0,0E0,6.1294127E0,4.9908757E0,7.6486773E0,6.395896E0,9.722073E0,1.3367833E1,0E0,1.3679374E0,1.3852835E-2,2.117239E0,0E0,0E0,0E0,6.6548104E0,1.2460238E1,4.181912E0,3.5709229E0,1.2301965E1,2.0140705E0,1.0397776E1,1.0771364E1,7.5202255E0,1.4793753E1,6.285224E0,0E0,6.5098727E-1,0E0,0E0,0E0,8.1331563E-1,0E0,0E0,0E0,0E0,0E0,0E0,0E0,0E0,0E0,0E0,0E0,0E0,0E0,0E0,0E0,0E0,0E0,0E0,0E0,0E0,0E0,0E0,0E0,0E0,0E0,0E0],"parents":[2147483647,0,0,1,1,2,2,3,3,4,4,5,5,6,6,7,7,8,8,9,9,10,10,11,11,12,12,15,15,17,17,18,18,19,19,20,20,21,21,22,22,24,24,25,25,26,26,30,30,31,31,32,32,33,33,34,34,35,35,36,36,37,37,38,38,39,39,40,40,42,42,46,46],"right_children":[2,4,6,8,10,12,14,16,18,20,22,24,26,-1,-1,28,-1,30,32,34,36,38,40,-1,42,44,46,-1,-1,-1,48,50,52,54,56,58,60,62,64,66,68,-1,70,-1,-1,-1,72,-1,-1,-1,-1,-1,-1,-1,-1,-1,-1,-1,-1,-1,-1,-1,-1,-1,-1,-1,-1,-1,-1,-1,-1,-1,-1],"split_conditions":[2.5270567E0,8.077366E-1,3.88871E-1,-2.3852298E0,4.1477516E-1,-6.080692E-1,2.5820036E0,-1.8325053E-1,-1.4229796E0,1.7279038E0,6.538153E-1,-1.5659746E0,-5.435037E-1,2.6257658E-1,1.6065508E-2,6.8712986E-1,3.0343902E-1,-1.0414329E0,-1.2988183E0,-7.514119E-1,-6.60845E-1,6.4609164E-1,-6.7425627E-1,1.5492141E-1,-3.5020387E-1,-1.0414329E0,-3.5726175E-1,2.6545465E-1,-2.2469334E-1,-3.502059E-1,1.8191749E0,8.536463E-1,-1.337866E-1,7.456651E-3,-8.762484E-2,-1.3138494E0,-4.7842202E-1,-1.3875376E0,6.454054E-1,7.639354E-1,-2.4691494E-1,9.4423875E-2,-3.9864886E-1,6.3451104E-2,2.0744324E-1,-2.1493617E-1,1.7279038E0,-1.1222454E-2,-3.2506672E-1,2.0523874E-1,-2.543021E-1,3.9893985E-2,-2.702334E-3,-1.095443E-1,-3.0869378E-2,3.2093543E-1,-1.8747734E-2,-1.4601517E-1,-4.3296602E-1,4.2296448E-1,-1.374342E-1,3.904097E-1,-1.6875878E-1,1.1929917E-1,5.33276E-1,-2.3154834E-1,1.377786E-1,-2.2018002E-1,-5.2148607E-2,-2.248545E-2,-3.0902508E-1,1.6423005E-1,-1.5329461E-2],"split_indices":[5,5,2,0,4,8,2,2,0,9,4,8,0,0,0,3,0,2,0,4,8,6,8,0,3,2,0,0,0,0,2,4,4,2,4,8,8,3,4,4,8,0,0,0,0,0,9,0,0,0,0,0,0,0,0,0,0,0,0,0,0,0,0,0,0,0,0,0,0,0,0,0,0],"split_type":[0,0,0,0,0,0,0,0,0,0,0,0,0,0,0,0,0,0,0,0,0,0,0,0,0,0,0,0,0,0,0,0,0,0,0,0,0,0,0,0,0,0,0,0,0,0,0,0,0,0,0,0,0,0,0,0,0,0,0,0,0,0,0,0,0,0,0,0,0,0,0,0,0],"sum_hessian":[1.8432184E3,1.814131E3,2.9087437E1,1.2201951E3,5.9393585E2,2.1064175E1,8.02326E0,8.901868E0,1.2112932E3,3.0313452E2,2.9080133E2,5.3126183E0,1.5751557E1,6.2216177E0,1.801643E0,3.9923093E0,4.9095583E0,8.78254E1,1.1234678E3,2.664314E2,3.670311E1,8.524607E1,2.0555525E2,1.3749889E0,3.9376295E0,4.9119525E0,1.0839604E1,2.9465423E0,1.045767E0,5.0298724E0,8.279553E1,3.37069E1,1.0897609E3,2.1683276E2,4.959864E1,1.1999702E1,2.470341E1,2.1125153E1,6.412092E1,6.935505E1,1.3620021E2,1.4375172E0,2.5001123E0,1.2450804E0,3.666872E0,1.1842842E0,9.65532E0,7.718672E1,5.6088066E0,2.8105732E1,5.6011686E0,2.7752216E2,8.122388E2,8.670357E1,1.301292E2,1.1817634E1,3.7781006E1,5.0983605E0,6.9013414E0,2.4360642E0,2.2267345E1,2.7194896E0,1.8405664E1,6.0756096E1,3.364823E0,1.0735241E1,5.861981E1,2.3684515E1,1.1251569E2,1.310018E0,1.1900944E0,6.654709E0,3.0006113E0],"tree_param":{"num_deleted":"0","num_feature":"11","num_nodes":"73","size_leaf_vector":"1"}},{"base_weights":[-4.474992E-4,-4.8370548E-2,4.8427843E-2,-1.3862969E-1,2.422651E-2,3.6312085E-1,3.3014193E-2,-6.523234E-2,-4.834095E-1,-3.6111627E-2,2.9238456E-1,4.7612545E-1,-4.2299068E-1,5.0146688E-2,-3.3883172E-1,1.3705517E-1,-2.889413E-1,-7.632622E-1,-3.2784466E-2,-4.0240526E-1,-1.0672504E-3,-1.7281722E-1,4.472758E-1,3.1262764E-1,9.4962966E-1,-3.0283445E-1,1.0986329E-1,1.6893804E-1,-4.465571E-3,-9.519856E-1,-6.358592E-2,7.1832268E-3,8.315478E-1,-3.535188E-1,9.2438215E-1,-9.183224E-1,-1.0385198E-1,2.2645673E-1,-9.267406E-1,4.4728002E-1,-7.4333715E-1,3.416886E-1,-9.2139944E-2,7.5985754E-1,-6.3646936E-1,-1.154761E-1,6.0538507E-1,2.4887048E-2,9.802517E-1,-1.1252055E-3,1.2022185E0,2.2866677E-1,-1.370808E-1,4.0668735E-1,4.858E-2,-6.56153E-2,1.8163489E-1,-5.539062E-1,-4.4143724E-1,1.742762E-1,-7.187248E-1,-4.4370282E-2,1.0481369E-1,2.9853675E-1,-2.7443925E-1,5.8376834E-2,-1.4474212E-1,-4.5996815E-2,4.5669833E-1,-3.0996552E-1,-5.560341E-2,-2.2381417E-1,9.111377E-2,-8.496064E-2,3.185815E-1,-3.701914E-2,-3.2200927E-1,2.702156E-1,-1.2371316E-1,